solver_type L2R_L2LOSS_SVC
nr_class 3
label 0 1 2
nr_feature 577
bias 1.000000000000000
w
-0.1497849925320290 -0.1024077639824412 -0.04171736637864391 
0.07840873881790764 -0.08858828331973806 -0.03925306418058856 
0.01771140765140444 -0.01770418287584961 -0.004052314917075116 
-0.006904827321193626 -0.001615158986624537 0.002813873572587691 
-0.003283546176696275 -0.008972823578067807 0.008899470339492125 
0.1310189831404428 -0.06252290466245154 -0.08808875728673371 
-0.01877122870890018 -0.08648764620730590 0.005597072461038499 
0.2654034049353333 -0.1419861355668280 -0.1818982788006704 
0.2918203999696398 -0.1560718312681833 -0.2009591189034865 
0.04766112332408786 -0.03237377891896762 -0.02515896115979463 
0.009624677527766348 -0.004440031575848625 -0.006229743155298262 
0.009624677527766348 -0.004440031575848625 -0.006229743155298262 
-0.02938431275414673 0.06788570666881784 -0.08270433525627306 
0.09774028487643495 -0.04658520173889833 -0.06901495300482220 
0.05755780633393307 -0.07334253235324067 -0.01435498791718428 
-0.006144559441596007 -0.04125303767039646 0.007538272318977411 
0.03661781863362308 -0.02713228806035355 -0.02266239580496218 
0.005223818731322921 -0.001852600326145327 -0.004059478777388160 
0.003454684619070151 0.01033927713744827 -0.01845087728205237 
0.005223818731322921 -0.001852600326145327 -0.004059478777388160 
-0.004943473150696570 -0.01233495563685428 0.01208168772529681 
-0.0003957926936665868 -0.02522400926870952 0.009095111641542631 
0.005941713109673666 -0.002455242245989002 -0.004632972262184936 
0.005941713109673666 -0.002455242245989002 -0.004632972262184936 
0.005941713109673666 -0.002455242245989002 -0.004632972262184936 
0.005941713109673666 -0.002455242245989002 -0.004632972262184936 
0.005941713109673666 -0.002455242245989002 -0.004632972262184936 
0.01507011638752225 -0.007500978326916834 -0.01161514430838688 
0.005941713109673666 -0.002455242245989002 -0.004632972262184936 
0.005941713109673666 -0.002455242245989002 -0.004632972262184936 
0.01834456963349329 -0.009638237019891062 -0.01248018986279765 
0.008147129192017256 -0.02173289925321974 0.004949281950976126 
0.04375673368740138 -0.03035266025232777 -0.03211875992897569 
0.006707094980508586 -0.003440809833260942 -0.003838375695398283 
0.08820494478713246 -0.04884063337191328 -0.06961041292476135 
0.02037690765233492 -0.01127490358901378 -0.01501620830203557 
0.01322564536763790 -0.01647038547837522 -0.005479083040929435 
0.02454454968162056 -0.02171210497201907 -0.01346579176173098 
0.006064280937650504 0.004835077643907027 -0.01888177460808916 
0.01107845496477873 -0.001996083631771813 -0.01484830451792601 
0.003587079389808128 -0.001939336312179398 -0.002874679591196506 
-0.06694736287449388 0.08303882841439414 -0.06073754724295351 
0.003275557907096075 0.004228817452107836 -0.009855133366786518 
0.008231879994700358 -0.004682642660864412 -0.004720216750567613 
0.008231879994700358 -0.004682642660864412 -0.004720216750567613 
0.02251865776871055 -0.01388129868932391 -0.01371650934256908 
-0.01050429847588123 0.007395106998740717 -0.01059916104049735 
0.002681444003283813 0.002777080963616964 -0.007997932036283349 
0.005272868524501238 -0.003141030507931155 -0.003784388396331590 
0.005272868524501238 -0.003141030507931155 -0.003784388396331590 
0.005272868524501238 -0.003141030507931155 -0.003784388396331590 
0.008787873838655630 -0.01259655783306655 -6.637019609065083e-05 
0.004852250849174131 0.001472770211505861 -0.008664006109766963 
-0.009434414782583401 0.02308269204208279 -0.02298542700021398 
-0.0002173053585012649 0.006442420727000439 -0.01224736846200027 
0.02481488819115365 -0.01471026552860863 -0.01579666496831093 
0.05583115776194760 -0.02454812615752266 -0.04820262940229934 
0.004353498509348720 -0.002011943518869575 -0.003453516092636855 
0.004353498509348720 -0.002011943518869575 -0.003453516092636855 
-0.003169017135295194 0.01354216752329086 -0.01436346331898685 
0.008943582106460365 -0.005165554908604293 -0.006361472411071130 
0.04706285025171470 -0.01770415296175755 -0.04648292854854397 
0.03519841820014199 -0.02081176396197626 -0.03405455831008006 
0.009158859603639687 -0.004112162760828307 -0.006433108343099892 
0.009158859603639687 -0.004112162760828307 -0.006433108343099892 
0.05073501008430247 -0.02820486345726308 -0.03308796161598552 
-0.01021275766089448 -0.02112412389834890 0.02227621106950774 
0.04783043944890289 -0.02671313570960422 -0.03002937465859901 
0.009158859603639687 -0.004112162760828307 -0.006433108343099892 
-0.002377052842165925 0.03929975247410852 -0.04870862538575644 
-0.003258234232035838 0.02350530617801327 -0.03216406111773477 
0.005799632394028173 -0.003144264316503114 -0.002909147729918440 
0.005799632394028173 -0.003144264316503114 -0.002909147729918440 
-0.002440471566747133 -0.02474442178558220 0.01690603599021808 
0.008758641407558151 -0.0005138962258817703 -0.01356864322605134 
0.008758641407558151 -0.0005138962258817703 -0.01356864322605134 
0.02075670303551588 -0.01164959353200221 -0.01517390489083365 
0.006430999065861223 -0.004034145460108981 -0.004766696085771026 
0.01271830881268143 -0.007905959615297406 -0.007902793070512705 
-0.009535955745503610 -0.02192225478813942 0.02178316611281280 
0.006684919621876200 -0.004539574973222224 -0.004670377584466106 
0.006684919621876200 -0.004539574973222224 -0.004670377584466106 
0.04293935131431312 -0.02482516087259643 -0.02811496591914466 
0.006329255624405350 -0.003498158625614937 -0.004908526547998899 
0.0004846603449674333 -0.01004627073061664 0.004436502531610416 
0.008687547806694083 -0.01102723896598835 -0.006525940412687339 
0.008129732152818238 -0.004927796859599150 -0.005645559713514299 
-0.007411188242739369 -0.008004598111615881 0.006843848116088835 
-0.0002468722019615042 -0.009483834770572493 0.005690808031419400 
0.005409102516609573 -0.002773296199213605 -0.003639098404319671 
-0.01045373705301260 0.01838562098886322 -0.02184126487006562 
0.01550641730303810 -0.008931426783227794 -0.009169105483539984 
0.003850444199229157 -0.002600424095643680 -0.002004464437684254 
-0.0002486008584622197 0.005679018122768909 -0.007928105085561864 
0.01054614114563145 -0.01642271814366888 -0.0005070225539346464 
0.003850444199229157 -0.002600424095643680 -0.002004464437684254 
0.003850444199229157 -0.002600424095643680 -0.002004464437684254 
0.003850444199229157 -0.002600424095643680 -0.002004464437684254 
0.003126365787406822 -0.001077122473542572 -0.002643082768941758 
0.006206552467314942 -0.01332600335957490 0.001714861821991743 
-0.0008326553247572705 -0.01731897318032785 0.01042887294099879 
0.01424704812520363 -0.006930078669484317 -0.009459412301071722 
0.003126365787406822 -0.001077122473542572 -0.002643082768941758 
0.002737797683697014 -0.02665040911996831 0.01381273117354519 
0.006572692782849348 -0.002654119192495454 -0.005081848329125133 
0.006572692782849348 -0.002654119192495454 -0.005081848329125133 
0.006137240334247991 -0.003379222556639837 -0.003449319996629657 
0.006137240334247991 -0.003379222556639837 -0.003449319996629657 
0.006137240334247991 -0.003379222556639837 -0.003449319996629657 
0.01861449895016159 -0.01058210664255009 -0.01169286832494424 
0.01266271618826547 -0.006890526476741259 -0.007193772362167317 
0.006287309746820211 -0.003871814155188425 -0.003136096984741680 
-0.006483445132818579 0.01872946462716506 -0.01684895126166663 
0.01289225516887673 -0.007471374399942371 -0.008512371391700413 
0.01289225516887673 -0.007471374399942371 -0.008512371391700413 
0.04099512135605272 -0.02184987123405645 -0.03026106134522643 
0.007599273340145847 -0.01274224465518258 0.0001305364503821988 
-0.03410258854254114 -0.06347853893715587 0.07523450856966820 
0.005176487376751872 -0.01778709959875236 0.007457349903437341 
0.01289225516887673 -0.007471374399942371 -0.008512371391700413 
0.01428677777401019 -0.009198656028459495 -0.008996292592001465 
0.01428677777401019 -0.009198656028459495 -0.008996292592001465 
0.01428677777401019 -0.009198656028459495 -0.008996292592001465 
0.009748423812149897 -0.01392993575519067 -0.001549285143135392 
0.007209179719971010 -0.003653066057333658 -0.004990824733304599 
0.007209179719971010 -0.003653066057333658 -0.004990824733304599 
0.01390073456332870 -0.007241333018078458 -0.008719270808334500 
0.007209179719971010 -0.003653066057333658 -0.004990824733304599 
0.005952383688401836 -0.002675918381403714 -0.004525395528136899 
-0.01070466591897379 0.02480835283189991 -0.02172157100566756 
0.0004464472196602903 -0.009400076679209423 0.005120762168162243 
0.003679942276120181 0.01464582476168354 -0.02365298455254271 
0.01110096951055242 -0.005524801281414690 -0.007872120874816715 
0.006869442300960117 -0.004212487334285282 -0.005176145115041603 
0.006869442300960117 -0.004212487334285282 -0.005176145115041603 
0.02097225024909580 -0.01196233769050357 -0.01384900528088713 
0.006619270421059893 -0.004084239533852225 -0.004961202541220101 
0.006603224129791451 -0.004038730457398946 -0.004938069870694270 
0.0003730391686620354 -0.009515240630203852 0.004014232555120224 
0.009128403277848585 -0.005045736080927832 -0.006982172046201940 
0.007661424984678211 -0.004289831195906549 -0.005159356664637128 
0.008661769776754157 -0.003405851584572855 -0.007085946769127412 
0.009598266662929256 -0.01971632010258714 0.002211312462511270 
0.006291222956429646 -0.003667526844918100 -0.004757178817474334 
0.006291222956429646 -0.003667526844918100 -0.004757178817474334 
-0.004998214726288209 -0.01661619469277360 0.01319141832955030 
0.006744157218300535 -0.004214039851024833 -0.004979692163159173 
0.006744157218300535 -0.004214039851024833 -0.004979692163159173 
-0.008850213681044503 0.004247023923972301 -0.005495574482901280 
0.01057930786776117 -0.004942792684599540 -0.007132170499537217 
0.01057930786776117 -0.004942792684599540 -0.007132170499537217 
0.005857302958216654 -0.003215818401977726 -0.003596341784475447 
0.005857302958216654 -0.003215818401977726 -0.003596341784475447 
0.006384124096212409 -0.003008380722663343 -0.004769330439408047 
0.006384124096212409 -0.003008380722663343 -0.004769330439408047 
0.006384124096212409 -0.003008380722663343 -0.004769330439408047 
0.004983442003548820 -0.002473733639301908 -0.003367009535500307 
-0.0004614003997311183 -0.008874289382155707 0.005236558531915016 
0.004983442003548820 -0.002473733639301908 -0.003367009535500307 
0.004983442003548820 -0.002473733639301908 -0.003367009535500307 
0.003615510266494171 -0.001573413161992867 -0.002860502707183894 
0.006195971816836413 -0.002687651212294078 -0.004761649091548323 
-0.03626440499631711 0.06315953685816234 -0.04374446182565078 
-0.03216249237807586 0.05636940329893546 -0.03831168616810213 
-0.1779653463093479 0.3432838523001381 -0.2516663126258137 
-0.003638795907747294 0.006300101590316465 -0.004592894745922469 
-0.03602808143112242 0.04985619111841515 -0.03009660423659992 
-0.02151854604301716 -0.01213065350927625 0.02588235343164998 
-0.003638795907747294 0.006300101590316465 -0.004592894745922469 
-0.003638795907747294 0.006300101590316465 -0.004592894745922469 
-0.003638795907747294 0.006300101590316465 -0.004592894745922469 
-0.006120194752558076 0.01469725570748433 -0.01107336911123636 
-0.02978830643613042 -0.01783354282998773 0.03632123436471461 
-0.01843937699162858 0.03808000290114122 -0.02915621478524148 
-0.01063324060440068 0.009291125527905874 -0.002804323959533668 
-0.006120194752558076 0.01469725570748433 -0.01107336911123636 
-0.01559048376508472 0.01356004757071585 -0.003632455213842917 
-0.02445778784059751 -0.004106114133187076 0.01981559060993975 
-0.03230142242132385 0.007092931757004720 0.01380623989736959 
-0.01585530019607005 0.01511602365099330 -0.006927379080165542 
-0.006120194752558076 0.01469725570748433 -0.01107336911123636 
-0.004340634570341314 0.007161362667391409 -0.005294490516805642 
-0.004340634570341314 0.007161362667391409 -0.005294490516805642 
-0.004340634570341314 0.007161362667391409 -0.005294490516805642 
-0.009923110640201039 0.01863883939139617 -0.01292886904319509 
-0.004340634570341314 0.007161362667391409 -0.005294490516805642 
-0.004340634570341314 0.007161362667391409 -0.005294490516805642 
-0.03259395081979252 0.05920540376576462 -0.04095767853093377 
-0.01602649710556741 0.006768260557736096 0.001176949994997119 
-0.008308857020979336 0.01339952828827040 -0.008956436398431454 
-0.01597711643087782 0.02807485713562460 -0.01782198263567732 
-0.02877954844098771 0.05230381817042434 -0.03508195706643612 
-0.006375007717437733 0.01722636499713876 -0.01328146725406217 
-0.004956322087604282 0.008911460112972247 -0.005134916616218906 
-0.004956322087604282 0.008911460112972247 -0.005134916616218906 
-0.004956322087604282 0.008911460112972247 -0.005134916616218906 
-0.004956322087604282 0.008911460112972247 -0.005134916616218906 
-0.009239308467518756 0.01486940760792521 -0.009380675884626504 
-0.005014174027128222 0.006831161275678841 -0.004033470090163150 
-0.01379887293067817 0.02298224822547513 -0.01694041937578855 
-0.04128536500110773 0.08151426890528615 -0.06294981239816867 
-0.03746371060657552 0.06302163422118430 -0.04690883403173436 
-0.04168884504696604 0.07105988055343067 -0.05225603982619771 
-0.005014174027128222 0.006831161275678841 -0.004033470090163150 
-0.005014174027128222 0.006831161275678841 -0.004033470090163150 
-0.005014174027128222 0.006831161275678841 -0.004033470090163150 
-0.005014174027128222 0.006831161275678841 -0.004033470090163150 
-0.005014174027128222 0.006831161275678841 -0.004033470090163150 
-0.01769561027836569 -0.002868785183212921 0.01355825765762329 
-0.004597204495999719 0.007709307113794363 -0.005362014360699513 
-0.01005139779083774 0.002434200246509460 0.003506184820112958 
-0.004597204495999719 0.007709307113794363 -0.005362014360699513 
-0.004597204495999719 0.007709307113794363 -0.005362014360699513 
-0.03808298348924899 0.01926423173645458 -0.001084525804688026 
-0.004597204495999719 0.007709307113794363 -0.005362014360699513 
-0.004597204495999719 0.007709307113794363 -0.005362014360699513 
-0.004597204495999719 0.007709307113794363 -0.005362014360699513 
-0.02515731976066006 0.04675100699077690 -0.03111394854560169 
-0.01652971178326042 0.02969321118988086 -0.02241066677019166 
-0.01159258063538558 0.02380997474159976 -0.01646869782039889 
-0.01644568736945012 0.03261418047898199 -0.02200351046360688 
-0.009447537161443543 0.01845080081347879 -0.01308915155501019 
-0.01358306169805050 0.02406483516881404 -0.01666761705533670 
-0.01222055292905959 0.02457593414673562 -0.01665630466914353 
-0.02027349066170365 0.03985979808696015 -0.02727667291718114 
-0.01229054551099809 0.02206037998157892 -0.01414983384829408 
-0.004225134440390534 0.008038246332246368 -0.005347205794463354 
-0.004225134440390534 0.008038246332246368 -0.005347205794463354 
-0.02141113544024811 0.02941264839158667 -0.01758785328783948 
-0.004225134440390534 0.008038246332246368 -0.005347205794463354 
-0.004225134440390534 0.008038246332246368 -0.005347205794463354 
-0.004225134440390534 0.008038246332246368 -0.005347205794463354 
-0.002470461662784337 0.003806387216219759 -0.002985989721648172 
-0.002470461662784337 0.003806387216219759 -0.002985989721648172 
-0.008888156262277663 0.01437696682927874 -0.01112956154028174 
-0.01567150673380621 0.02687850007277643 -0.01968135489841488 
-0.002470461662784337 0.003806387216219759 -0.002985989721648172 
-0.005467043797906593 0.01002246831889868 -0.007595073281978357 
-0.005467043797906593 0.01002246831889868 -0.007595073281978357 
-0.01247462262368967 0.002144730664258747 0.003161467113688633 
-0.02092470548098659 0.01459970330157073 -0.004265511554803769 
-0.005467043797906593 0.01002246831889868 -0.007595073281978357 
-0.005467043797906593 0.01002246831889868 -0.007595073281978357 
-0.005467043797906593 0.01002246831889868 -0.007595073281978357 
-0.008365978757643097 0.01854073561828775 -0.01365862076025460 
-0.01232064109403605 0.02512121550170181 -0.01893073281498692 
-0.01382017205248112 0.01326562875100285 -0.004790421579442124 
-0.008365978757643097 0.01854073561828775 -0.01365862076025460 
-0.008365978757643097 0.01854073561828775 -0.01365862076025460 
-0.008365978757643097 0.01854073561828775 -0.01365862076025460 
-0.008365978757643097 0.01854073561828775 -0.01365862076025460 
-0.008365978757643097 0.01854073561828775 -0.01365862076025460 
-0.01511429655034126 0.01070741038845192 -0.003050087965957390 
-0.05313285981832599 0.007711305513524678 0.01816459113184018 
-0.01911339236257769 0.002590037076601626 0.01009374294824538 
-0.002950358309323996 0.006106895810984276 -0.004285843323099619 
-0.01409875840063397 0.02803690163570275 -0.01815310209201231 
-0.01409875840063397 0.02803690163570275 -0.01815310209201231 
-0.01541874739198290 -0.0005234297078566499 0.006971568340497901 
-0.003621281144497352 0.007357664591443269 -0.006085596766904435 
-0.01112040233235040 5.157639001048274e-05 0.005404518323566283 
-0.01928903866157911 0.03185854442305668 -0.02489127063872825 
-0.006417694599493326 0.01057057961305898 -0.008143571818633568 
-0.006417694599493326 0.01057057961305898 -0.008143571818633568 
-0.006417694599493326 0.01057057961305898 -0.008143571818633568 
-0.01990346920523523 0.03420917695990718 -0.02406169533567774 
-0.006417694599493326 0.01057057961305898 -0.008143571818633568 
-0.006417694599493326 0.01057057961305898 -0.008143571818633568 
-0.01070726128761392 0.004930342475825716 0.0003378865255673822 
-0.006417694599493326 0.01057057961305898 -0.008143571818633568 
-0.006417694599493326 0.01057057961305898 -0.008143571818633568 
-0.008784698903549947 0.01615108694979629 -0.01290694928562540 
-0.03689303350724979 0.07267179530587627 -0.05795630829442170 
-0.008784698903549947 0.01615108694979629 -0.01290694928562540 
-0.008784698903549947 0.01615108694979629 -0.01290694928562540 
-0.008784698903549947 0.01615108694979629 -0.01290694928562540 
-0.008784698903549947 0.01615108694979629 -0.01290694928562540 
-0.008556401642339400 0.02202138059195468 -0.01771229291956656 
-0.005601669425372579 0.01090259236580046 -0.007290608476912691 
-0.005601669425372579 0.01090259236580046 -0.007290608476912691 
-0.02597297199382454 0.05095285339693842 -0.03789106875997664 
-0.01728410748484998 0.04039700148335274 -0.03133858961948881 
-0.005601669425372579 0.01090259236580046 -0.007290608476912691 
-0.006315830941318322 0.003190184641355104 -0.0007271701924640389 
-0.006315830941318322 0.003190184641355104 -0.0007271701924640389 
-0.006512537651558890 0.003908652910108468 -0.0008112901756486573 
-0.01270257910998253 0.02831075799564241 -0.02323266844491038 
-0.004747906772238064 0.01556227539739938 -0.01412696019570625 
-0.1653235774337478 -0.1632500376838438 0.2499843053910712 
-0.06845558366541440 -0.03941570183734017 0.07369501221925481 
-0.01134558166959614 0.02903566917923562 -0.02214730844978499 
-0.001487047998186046 0.009401577311277682 -0.009104484460003068 
-0.001487047998186046 0.009401577311277682 -0.009104484460003068 
-0.01531864316717382 0.03251006644855931 -0.02693172563998322 
-0.01426156903985185 -0.005780901863952545 0.01307462165659932 
-0.01043101154622129 -0.001835156779058558 0.007246166941947978 
-0.01634543649935312 -0.006509556568199752 0.01656665944595091 
-0.001418685629833451 0.008314904884166514 -0.008146550637843262 
-0.03418530905195171 0.0004759124398436487 0.01754593845432775 
-0.007433492727453003 0.0007933704825836397 0.003650934372249385 
-0.01556660789042965 0.01926068725041899 -0.01196670725131707 
-0.002954732216966822 0.01111878822615422 -0.01042168444265387 
-0.02384789428197042 -0.002552553891507753 0.01459106310458034 
-0.002954732216966822 0.01111878822615422 -0.01042168444265387 
-0.01692120221803151 -0.004053156040428418 0.01382983260082984 
-0.02396039246395040 -0.01168867916094685 0.02304154780802032 
-0.002954732216966822 0.01111878822615422 -0.01042168444265387 
-0.007509904044865283 0.01907089988818208 -0.01552033517145707 
-0.002954732216966822 0.01111878822615422 -0.01042168444265387 
-0.002954732216966822 0.01111878822615422 -0.01042168444265387 
-0.01777987804723454 0.03413214955958983 -0.02638691664311219 
-0.005463144953565739 0.008648965310577518 -0.005333403460774784 
-0.005463144953565739 0.008648965310577518 -0.005333403460774784 
-0.009217109424082135 0.01664027131508235 -0.01073805853821371 
-0.02030479713249177 -0.01312721587216818 0.02467134943491963 
-0.005463144953565739 0.008648965310577518 -0.005333403460774784 
-0.005102495469740303 0.007925949934999286 -0.004847308039679078 
-0.005102495469740303 0.007925949934999286 -0.004847308039679078 
-0.005102495469740303 0.007925949934999286 -0.004847308039679078 
-0.005102495469740303 0.007925949934999286 -0.004847308039679078 
-0.01964731484500039 0.03559130669667373 -0.02573334059256683 
-0.003876611905305443 0.008730014350281133 -0.006506505878856319 
-0.003876611905305443 0.008730014350281133 -0.006506505878856319 
-0.003876611905305443 0.008730014350281133 -0.006506505878856319 
-0.003876611905305443 0.008730014350281133 -0.006506505878856319 
-0.008448094215902008 0.01533755904695539 -0.01058489101162263 
-0.003753964470516397 0.007991306004504830 -0.005404655077438922 
-0.003753964470516397 0.007991306004504830 -0.005404655077438922 
-0.003753964470516397 0.007991306004504830 -0.005404655077438922 
-0.003753964470516397 0.007991306004504830 -0.005404655077438922 
-0.002953071139157469 0.005606781411979954 -0.004372363399306272 
-0.002953071139157469 0.005606781411979954 -0.004372363399306272 
-0.002953071139157469 0.005606781411979954 -0.004372363399306272 
-0.01225487917504556 0.02178172452082532 -0.01513243838620755 
-0.01225487917504556 0.02178172452082532 -0.01513243838620755 
-0.008769431443844542 0.01449783125077082 -0.01131492316254604 
-0.01972108387720671 0.003715233437861423 0.006612596176219682 
-0.003954662336392951 0.006580479883414057 -0.005272112054732321 
-0.003954662336392951 0.006580479883414057 -0.005272112054732321 
-0.003954662336392951 0.006580479883414057 -0.005272112054732321 
-0.003954662336392951 0.006580479883414057 -0.005272112054732321 
-0.003954662336392951 0.006580479883414057 -0.005272112054732321 
-0.003954662336392951 0.006580479883414057 -0.005272112054732321 
-0.003954662336392951 0.006580479883414057 -0.005272112054732321 
-0.004814769107451590 0.007917351367356757 -0.006042811107813719 
-0.004814769107451590 0.007917351367356757 -0.006042811107813719 
-0.004814769107451590 0.007917351367356757 -0.006042811107813719 
-0.004814769107451590 0.007917351367356757 -0.006042811107813719 
-0.004814769107451590 0.007917351367356757 -0.006042811107813719 
-0.009369940935350053 0.01586946302938462 -0.01114146183661692 
-0.002914612905401664 0.005656832545897524 -0.003228115088710170 
-0.002914612905401664 0.005656832545897524 -0.003228115088710170 
-0.004101912618241240 0.006790133559226877 -0.005432775657548640 
-0.004101912618241240 0.006790133559226877 -0.005432775657548640 
-0.004101912618241240 0.006790133559226877 -0.005432775657548640 
-0.004101912618241240 0.006790133559226877 -0.005432775657548640 
-0.004101912618241240 0.006790133559226877 -0.005432775657548640 
-0.004101912618241240 0.006790133559226877 -0.005432775657548640 
-0.01618837057862094 0.01027480469695623 -0.003815322878993323 
-0.003608182246491910 0.006870267790385592 -0.004352760782078139 
-0.003608182246491910 0.006870267790385592 -0.004352760782078139 
-0.007840782743679215 0.0009405307609530182 0.002110320320133699 
-0.003504920482382553 0.005895278116313883 -0.004806312394743675 
-0.003504920482382553 0.005895278116313883 -0.004806312394743675 
-0.003504920482382553 0.005895278116313883 -0.004806312394743675 
-0.003504920482382553 0.005895278116313883 -0.004806312394743675 
-0.003504920482382553 0.005895278116313883 -0.004806312394743675 
-0.02327974096296216 -0.01254752826746065 0.02588068728371452 
-0.003920717033934926 0.008199498477043796 -0.005151944398720749 
-0.003920717033934926 0.008199498477043796 -0.005151944398720749 
-0.008019762091626303 0.01647894069545638 -0.01107558504659836 
-0.003920717033934926 0.008199498477043796 -0.005151944398720749 
-0.003920717033934926 0.008199498477043796 -0.005151944398720749 
-0.003920717033934926 0.008199498477043796 -0.005151944398720749 
-0.004571482310596564 0.006607544696674259 -0.004078385132766317 
-0.004571482310596564 0.006607544696674259 -0.004078385132766317 
-0.004571482310596564 0.006607544696674259 -0.004078385132766317 
-0.004571482310596564 0.006607544696674259 -0.004078385132766317 
-0.004571482310596564 0.006607544696674259 -0.004078385132766317 
-0.004828335981310058 0.008391070121416887 -0.006596224086716208 
-0.004555171827898461 0.007952111662027863 -0.005098650728803201 
-0.004555171827898461 0.007952111662027863 -0.005098650728803201 
-0.004555171827898461 0.007952111662027863 -0.005098650728803201 
-0.004555171827898461 0.007952111662027863 -0.005098650728803201 
-0.006387195130486426 0.01051811056294784 -0.007531959898191105 
-0.006387195130486426 0.01051811056294784 -0.007531959898191105 
-0.003260858774052018 0.006160698086121700 -0.005022475735703182 
-0.003260858774052018 0.006160698086121700 -0.005022475735703182 
-0.003260858774052018 0.006160698086121700 -0.005022475735703182 
-0.02428956720570774 0.005456363870842272 0.008400772280536038 
-0.005931987108584077 0.01286463663070905 -0.01055088577581401 
-0.01199441899572775 -0.005609208138259214 0.01148536176320393 
-0.004099045057691377 0.008279442218412588 -0.005923640647877611 
-0.01086193659681031 -0.01070359824883489 0.01760436506017099 
-0.01122632182915651 -0.01071568486262612 0.01771871555842490 
-0.03158444427451781 -0.03201058524574625 0.05101440658766767 
-0.006964816170347173 -0.006125460550853532 0.01082799604332889 
-0.006964816170347173 -0.006125460550853532 0.01082799604332889 
-0.01384368066165639 -0.01318078015917013 0.02248245358067410 
-0.01384368066165639 -0.01318078015917013 0.02248245358067410 
-0.006964816170347173 -0.006125460550853532 0.01082799604332889 
-0.01101901671572681 -0.01024664720272747 0.01709856889577012 
-0.006446374131062910 -0.005459667802277704 0.009798772888762228 
-0.006446374131062910 -0.005459667802277704 0.009798772888762228 
-0.01537218766601223 -0.01608988948244859 0.02393310838699844 
-0.01537218766601223 -0.01608988948244859 0.02393310838699844 
-0.01504374205116891 -0.01500463946941116 0.02360612511873561 
-0.03946054219776238 -0.03382128856541685 0.05818367506723362 
-0.004102627001852225 -0.005407394713026237 0.006743251666194792 
-0.01190805095548731 -0.01071461675479331 0.01702061584243498 
-0.04003484062713188 -0.04476271540208124 0.06384819711738410 
-0.02506615582521032 -0.03142651110253278 0.04177733197831202 
-0.01510447925520974 -0.01880604514744714 0.02463128781225257 
-0.02875449848828274 -0.03066137929421591 0.04425368106810208 
-0.007499121187853051 -0.007306088201432787 0.01149011509047072 
-0.01334371646729097 -0.01385420030643449 0.02083514417008003 
-0.007499121187853051 -0.007306088201432787 0.01149011509047072 
-0.007499121187853051 -0.007306088201432787 0.01149011509047072 
-0.005313559442417858 -0.006286656657442642 0.008250314039165380 
-0.03990679514201832 -0.04650587984617143 0.06360938089298276 
-0.01091478719244483 -0.01271674343705657 0.01700389910688544 
-0.009923460164676457 -0.01084957835221948 0.01577848460188848 
-0.005313559442417858 -0.006286656657442642 0.008250314039165380 
-0.005313559442417858 -0.006286656657442642 0.008250314039165380 
-0.01014234238555013 -0.01249804932736522 0.01662762830670441 
-0.005313559442417858 -0.006286656657442642 0.008250314039165380 
-0.04598557638448345 -0.05243159049802294 0.07414682739507958 
-0.006748317792698158 -0.007833325229835836 0.01060853279429721 
-0.006748317792698158 -0.007833325229835836 0.01060853279429721 
-0.006748317792698158 -0.007833325229835836 0.01060853279429721 
-0.006748317792698158 -0.007833325229835836 0.01060853279429721 
-0.01389689603444078 -0.01464607040771864 0.02271208436217352 
-0.004261505658809337 -0.004590224311772591 0.006890719515096004 
-0.01282293396141246 -0.01520835937815224 0.02091070451507831 
-0.005141808471304200 -0.006100642886760472 0.007967663577508262 
-0.005141808471304200 -0.006100642886760472 0.007967663577508262 
-0.005141808471304200 -0.006100642886760472 0.007967663577508262 
-0.005141808471304200 -0.006100642886760472 0.007967663577508262 
-0.006454133474978082 -0.007314898066153279 0.01079547256063294 
-0.006454133474978082 -0.007314898066153279 0.01079547256063294 
-0.01333299796628730 -0.01437021767446988 0.02244993009797814 
-0.006454133474978082 -0.007314898066153279 0.01079547256063294 
-0.006454133474978082 -0.007314898066153279 0.01079547256063294 
-0.01751310137923978 -0.01900280090888076 0.02812508925398646 
-0.006454133474978082 -0.007314898066153279 0.01079547256063294 
-0.01788099067796846 -0.02004796145313482 0.02922886024917503 
-0.006454133474978082 -0.007314898066153279 0.01079547256063294 
-0.006816956480731777 -0.008170141692204707 0.01090521712581899 
-0.004289566688120595 -0.005640237137233268 0.008481458344200950 
-0.01423767240934166 -0.01653793368601944 0.02575616366551543 
-0.02731962484368470 -0.02917198016448817 0.04371063104065569 
-0.004289566688120595 -0.005640237137233268 0.008481458344200950 
-0.004842068206235578 -0.005124740988964480 0.007864478012201144 
-0.004842068206235578 -0.005124740988964480 0.007864478012201144 
-0.004842068206235578 -0.005124740988964480 0.007864478012201144 
-0.004842068206235578 -0.005124740988964480 0.007864478012201144 
-0.007007578825783072 -0.007877737654639934 0.01075654039566699 
-0.007007578825783072 -0.007877737654639934 0.01075654039566699 
-0.007007578825783072 -0.007877737654639934 0.01075654039566699 
-0.007007578825783072 -0.007877737654639934 0.01075654039566699 
-0.007007578825783072 -0.007877737654639934 0.01075654039566699 
-0.007007578825783072 -0.007877737654639934 0.01075654039566699 
-0.004572642584663895 -0.004786979400449768 0.007299796007007891 
-0.01961351770837068 -0.02323740869773512 0.03392391874109262 
-0.004572642584663895 -0.004786979400449768 0.007299796007007891 
-0.004572642584663895 -0.004786979400449768 0.007299796007007891 
-0.008559478847678890 -0.009444116662505630 0.01439931930244472 
-0.004572642584663895 -0.004786979400449768 0.007299796007007891 
-0.009792294368651613 -0.01017749519981006 0.01552032987497326 
-0.009792294368651613 -0.01017749519981006 0.01552032987497326 
-0.004609900722258600 -0.004562921694776836 0.007528170562723106 
-0.004609900722258600 -0.004562921694776836 0.007528170562723106 
-0.004609900722258600 -0.004562921694776836 0.007528170562723106 
-0.004609900722258600 -0.004562921694776836 0.007528170562723106 
-0.004609900722258600 -0.004562921694776836 0.007528170562723106 
-0.005707903815229769 -0.006104565236035912 0.01017788279814464 
-0.005707903815229769 -0.006104565236035912 0.01017788279814464 
-0.01105896790426169 -0.01168790284272748 0.01732961669335352 
-0.006230184961129416 -0.005476510172804907 0.008952302425814494 
-0.006230184961129416 -0.005476510172804907 0.008952302425814494 
-0.005182393646393013 -0.005614573505033229 0.007992159312250155 
-0.009169229909408006 -0.01027171076708909 0.01509168260768698 
-0.005025489653372845 -0.005492924401169213 0.008293194284354410 
-0.005025489653372845 -0.005492924401169213 0.008293194284354410 
-0.005025489653372845 -0.005492924401169213 0.008293194284354410 
-0.005025489653372845 -0.005492924401169213 0.008293194284354410 
-0.008312649360272470 -0.005324058294793107 0.01137970271925411 
-0.008312649360272470 -0.005324058294793107 0.01137970271925411 
-0.008312649360272470 -0.005324058294793107 0.01137970271925411 
-0.008312649360272470 -0.005324058294793107 0.01137970271925411 
-0.008312649360272470 -0.005324058294793107 0.01137970271925411 
-0.008312649360272470 -0.005324058294793107 0.01137970271925411 
-0.008312649360272470 -0.005324058294793107 0.01137970271925411 
-0.008312649360272470 -0.005324058294793107 0.01137970271925411 
-0.008312649360272470 -0.005324058294793107 0.01137970271925411 
-0.004335862261296662 -0.004954747355360866 0.006916632714877375 
-0.004335862261296662 -0.004954747355360866 0.006916632714877375 
-0.004335862261296662 -0.004954747355360866 0.006916632714877375 
-0.01590677030548871 -0.02016690531077562 0.02759848551802154 
-0.008117083212292753 -0.01174999526179342 0.01502103367368868 
-0.003986836263014994 -0.004657137262055860 0.007099523295436829 
-0.005292981828730883 -0.005270870255240206 0.008642907842082612 
-0.005292981828730883 -0.005270870255240206 0.008642907842082612 
-0.005292981828730883 -0.005270870255240206 0.008642907842082612 
-0.005292981828730883 -0.005270870255240206 0.008642907842082612 
-0.005292981828730883 -0.005270870255240206 0.008642907842082612 
-0.005292981828730883 -0.005270870255240206 0.008642907842082612 
-0.005292981828730883 -0.005270870255240206 0.008642907842082612 
-0.02200091873735130 -0.02785363740495126 0.03781275213840326 
-0.01147287296432575 -0.01460880530981019 0.02028602519411781 
-0.006326736699195705 -0.008904035056067393 0.01247477821914404 
-0.006326736699195705 -0.008904035056067393 0.01247477821914404 
-0.006326736699195705 -0.008904035056067393 0.01247477821914404 
-0.006326736699195705 -0.008904035056067393 0.01247477821914404 
-0.006326736699195705 -0.008904035056067393 0.01247477821914404 
-0.01684644753279543 -0.01994676253942259 0.02723306522566709 
-0.02465187148643052 -0.02525398458118967 0.03751042940190728 
-0.005699262829893277 -0.007033439425218492 0.009149412676746422 
-0.01553221306417795 -0.01974654082269986 0.03065678526074185 
-0.01099385910231766 -0.01501526109596868 0.02320977781187578 
-0.003054612146470793 -0.004933642854813508 0.007452469709236282 
-0.003054612146470793 -0.004933642854813508 0.007452469709236282 
-0.003054612146470793 -0.004933642854813508 0.007452469709236282 
-0.003054612146470793 -0.004933642854813508 0.007452469709236282 
-0.004828782943132277 -0.006211392669922577 0.008377314267539030 
-0.01396647000106469 -0.01517194426658264 0.02425151704348371 
-0.005871645214298771 -0.008178718530196260 0.01153244012639774 
-0.005871645214298771 -0.008178718530196260 0.01153244012639774 
-0.01205210083330327 -0.01400393657884935 0.02057408333364588 
-0.009299023316593233 -0.01154449057277646 0.01729933295294865 
-0.004513045851842600 -0.005406130179578451 0.008269045151702691 
-0.006878864491309218 -0.007055319608316597 0.01165445753734520 
-0.006878864491309218 -0.007055319608316597 0.01165445753734520 
-0.005844595279437917 -0.006548112105001698 0.009345029079609315 
-0.005844595279437917 -0.006548112105001698 0.009345029079609315 
-0.01128943768271786 -0.01294866784785550 0.01794859714702464 
-0.003897120426463137 -0.004578137697981358 0.006776369016842099 
-0.003897120426463137 -0.004578137697981358 0.006776369016842099 
-0.003897120426463137 -0.004578137697981358 0.006776369016842099 
-0.004538353961860297 -0.004731279726731174 0.007447007448866072 
-0.004538353961860297 -0.004731279726731174 0.007447007448866072 
-0.004538353961860297 -0.004731279726731174 0.007447007448866072 
-0.003781220950996091 -0.006795247906432554 0.008104400958811302 
-0.003781220950996091 -0.006795247906432554 0.008104400958811302 
-0.003781220950996091 -0.006795247906432554 0.008104400958811302 
-0.003426201104004264 -0.004675488061576723 0.007488262950936803 
-0.003426201104004264 -0.004675488061576723 0.007488262950936803 
-0.007805423953635086 -0.005307222041767077 0.01027736417624019 
-0.007805423953635086 -0.005307222041767077 0.01027736417624019 
-0.007805423953635086 -0.005307222041767077 0.01027736417624019 
-0.007805423953635086 -0.005307222041767077 0.01027736417624019 
-0.01183643033757557 -0.01253575662001198 0.01837154964298721 
-0.006180455619004498 -0.005825218048653095 0.009041643207248140 
-0.006180455619004498 -0.005825218048653095 0.009041643207248140 
-0.006180455619004498 -0.005825218048653095 0.009041643207248140 
-0.006180455619004498 -0.005825218048653095 0.009041643207248140 
-0.005444842403279939 -0.006400555742853799 0.008603568067415322 
-0.005444842403279939 -0.006400555742853799 0.008603568067415322 
-0.005454193294838020 -0.005275106867284903 0.008868199180812471 
-0.005454193294838020 -0.005275106867284903 0.008868199180812471 
-0.005454193294838020 -0.005275106867284903 0.008868199180812471 
-0.005454193294838020 -0.005275106867284903 0.008868199180812471 
-0.005454193294838020 -0.005275106867284903 0.008868199180812471 
-0.005655974718571077 -0.006710538571358888 0.009329906435739070 
-0.005655974718571077 -0.006710538571358888 0.009329906435739070 
-0.004493912426383041 -0.005622589681501273 0.008406506140502009 
-0.004493912426383041 -0.005622589681501273 0.008406506140502009 
-0.004785977464750633 -0.006138360393198004 0.009030287801245958 
-0.004785977464750633 -0.006138360393198004 0.009030287801245958 
-0.004551783363181817 -0.005705490754076969 0.008359940314883676 
-0.003998253511573234 -0.009310512658690444 0.01063263339423945 
-0.006757069620852249 -0.008315796065079189 0.01113982087775402 
-0.006757069620852249 -0.008315796065079189 0.01113982087775402 
-0.006757069620852249 -0.008315796065079189 0.01113982087775402 
-0.006757069620852249 -0.008315796065079189 0.01113982087775402 
-0.006757069620852249 -0.008315796065079189 0.01113982087775402 
-0.006757069620852249 -0.008315796065079189 0.01113982087775402 
-0.1497849925320290 -0.1024077639824412 -0.04171736637864391 
