solver_type L2R_L2LOSS_SVC
nr_class 3
label 0 1 2
nr_feature 578
bias 1.000000000000000
w
-0.006218685025224015 -0.007816557400931689 -0.009872804874042882 
-0.1479577630833686 -0.1001117412481204 -0.03881720464099055 
0.07871592901230597 -0.08820190047159515 -0.03876523685438903 
0.01773656940428177 -0.01767261802924115 -0.004012318811212677 
-0.006869429585239741 -0.001570696228631651 0.002870007952732086 
-0.003262673420776731 -0.008946614840286547 0.008932595109961387 
0.1311406207276931 -0.06237015946755544 -0.08789569695054242 
-0.01815077638670022 -0.08570774993191385 0.006582137493292393 
0.2657665997498006 -0.1415296422816049 -0.1813215358582796 
0.2922252368040547 -0.1555630265571874 -0.2003165407386514 
0.04772234382155661 -0.03229692797049903 -0.02506192040102552 
0.009631146865411772 -0.004431878993954245 -0.006219486107934361 
0.009631146865411772 -0.004431878993954245 -0.006219486107934361 
-0.02910936416637313 0.06823156366366294 -0.08226747734179386 
0.09785129209907287 -0.04644574141196731 -0.06883887757130273 
0.05774522930345232 -0.07310706976018935 -0.01405782712629809 
-0.005896503595469076 -0.04094150154440308 0.007932160886350431 
0.03669970521167512 -0.02702941116538635 -0.02253238891675772 
0.005228086455663774 -0.001847247375371477 -0.004052717641417248 
0.003483589965396298 0.01037557337433725 -0.01840496062909542 
0.005228086455663774 -0.001847247375371477 -0.004052717641417248 
-0.004911054474806433 -0.01229418323477727 0.01213312937143154 
-0.0002929279995879073 -0.02509474245022717 0.009258401215881016 
0.005948849048356127 -0.002446287995594393 -0.004621658769853745 
0.005948849048356127 -0.002446287995594393 -0.004621658769853745 
0.005948849048356127 -0.002446287995594393 -0.004621658769853745 
0.005948849048356127 -0.002446287995594393 -0.004621658769853745 
0.005948849048356127 -0.002446287995594393 -0.004621658769853745 
0.01509516437554700 -0.007469555585846231 -0.01157554707905570 
0.005948849048356127 -0.002446287995594393 -0.004621658769853745 
0.005948849048356127 -0.002446287995594393 -0.004621658769853745 
0.01836803008062147 -0.009608754223726505 -0.01244291803130189 
0.008200835483742636 -0.02166537730496650 0.005034473431211243 
0.04387316068735315 -0.03020612032465769 -0.03193357399577663 
0.006710634176205195 -0.003436359624852759 -0.003832747919424963 
0.08839290427137035 -0.04860416227393886 -0.06931170815461570 
0.02041361976447586 -0.01122877110962453 -0.01495799946443427 
0.01327982840678601 -0.01640233881857944 -0.005393156873254175 
0.02461063946245011 -0.02162899445340732 -0.01336091914519915 
0.006113906865257550 0.004897559937438131 -0.01880280844619520 
0.01111431261978731 -0.001950904460230813 -0.01479125941241803 
0.003594799486416278 -0.001929576571505050 -0.002862303233398594 
-0.06666988950392441 0.08338771618884665 -0.06029734336452961 
0.003290160398923237 0.004247164569816824 -0.009831960448982012 
0.008239178207723193 -0.004673443422758350 -0.004708621145072634 
0.008239178207723193 -0.004673443422758350 -0.004708621145072634 
0.02255009461765120 -0.01384181825727779 -0.01366681526140694 
-0.01041897253066459 0.007502442024597735 -0.01046356531996603 
0.002697258542011214 0.002797011734096208 -0.007972658032718220 
0.005283118716612288 -0.003128125397633698 -0.003768103306068126 
0.005283118716612288 -0.003128125397633698 -0.003768103306068126 
0.005283118716612288 -0.003128125397633698 -0.003768103306068126 
0.008811995408758497 -0.01256624599966950 -2.803199866955981e-05 
0.004866813970459553 0.001491111794148323 -0.008640762101416108 
-0.009376465979802634 0.02315563725246260 -0.02289337557103930 
-0.0001799425427269997 0.006489459594578801 -0.01218797707205298 
0.02485021890105043 -0.01466587947960355 -0.01574051587236275 
0.05593609343435640 -0.02441645637819247 -0.04803634999202368 
0.004360362306496275 -0.002003362061073787 -0.003442684299349482 
0.004360362306496275 -0.002003362061073787 -0.003442684299349482 
-0.003144216593244085 0.01357345325686464 -0.01432409207369366 
0.008959636907026660 -0.005145354423154952 -0.006335939571192539 
0.04716925751520153 -0.01757033656030740 -0.04631377799371454 
0.03532064276250242 -0.02065811150824223 -0.03386036575983997 
0.009167431568496037 -0.004101402787080270 -0.006419605730160416 
0.009167431568496037 -0.004101402787080270 -0.006419605730160416 
0.05080048345371471 -0.02812270439963262 -0.03298435515102392 
-0.01015638340978714 -0.02105328718710097 0.02236559367526786 
0.04788578862058868 -0.02664371072384461 -0.02994163599121252 
0.009167431568496037 -0.004101402787080270 -0.006419605730160416 
-0.002303817582497018 0.03939186187070285 -0.04859231173166042 
-0.003184092579531270 0.02359837487522351 -0.03204620590004285 
0.005801232383745123 -0.003142241599579220 -0.002906559328628463 
0.005801232383745123 -0.003142241599579220 -0.002906559328628463 
-0.002376495915210098 -0.02466401602660404 0.01700764450939990 
0.008791682988815358 -0.0004723989719758018 -0.01351617587127705 
0.008791682988815358 -0.0004723989719758018 -0.01351617587127705 
0.02079432614052592 -0.01160227487028367 -0.01511422543915135 
0.006445711840666537 -0.004015657161750620 -0.004743333656394707 
0.01273754735833977 -0.007881791284448526 -0.007872179878107436 
-0.009475730616054850 -0.02184665501949224 0.02187878201184333 
0.006700562814838110 -0.004519940586168245 -0.004645583065048331 
0.006700562814838110 -0.004519940586168245 -0.004645583065048331 
0.04300139738423289 -0.02474718402469787 -0.02801647233795476 
0.006342157927242323 -0.003481911470197311 -0.004888023805343239 
0.0005165551808867206 -0.01000614461027154 0.004487161398690603 
0.008742558777113692 -0.01095811589143870 -0.006438776332956629 
0.008144890158567182 -0.004908713898250411 -0.005621510841009443 
-0.007357812645127667 -0.007937449785277325 0.006928658921526788 
-0.0002217785058843324 -0.009452353981953874 0.005730601785519287 
0.005415308275477950 -0.002765509060063137 -0.003629263071472738 
-0.01036737358397277 0.01849424911769755 -0.02170395974028203 
0.01552256106272568 -0.008911129589420022 -0.009143387315167950 
0.003855164446465562 -0.002594496963170525 -0.001996907192798778 
-0.0002329971580048060 0.005698687525017583 -0.007903173477525950 
0.01058578212335328 -0.01637299531352584 -0.0004441701826439879 
0.003855164446465562 -0.002594496963170525 -0.001996907192798778 
0.003855164446465562 -0.002594496963170525 -0.001996907192798778 
0.003855164446465562 -0.002594496963170525 -0.001996907192798778 
0.003130106898273642 -0.001072424199916933 -0.002637123909747693 
0.006240157576479015 -0.01328384325365788 0.001768125173741240 
-0.0007845611144084083 -0.01725861842577237 0.01050515898146274 
0.01426044067802585 -0.006913302016376474 -0.009438082730206290 
0.003130106898273642 -0.001072424199916933 -0.002637123909747693 
0.002800673178205009 -0.02657137197305112 0.01391258569575634 
0.006579863233373715 -0.002645133874125120 -0.005070530421829233 
0.006579863233373715 -0.002645133874125120 -0.005070530421829233 
0.006141521490975744 -0.003373867508794373 -0.003442521163315913 
0.006141521490975744 -0.003373867508794373 -0.003442521163315913 
0.006141521490975744 -0.003373867508794373 -0.003442521163315913 
0.01863719417950797 -0.01055363109393496 -0.01165683517469294 
0.01267149693957291 -0.006879539725378606 -0.007179850453515684 
0.006291835517673229 -0.003866134122697906 -0.003128846221712728 
-0.006454835640283351 0.01876540064689231 -0.01680340553091048 
0.01291138077056733 -0.007447358147752905 -0.008482147515926087 
0.01291138077056733 -0.007447358147752905 -0.008482147515926087 
0.04106404141906182 -0.02176333819141977 -0.03015190555061634 
0.007630372602196471 -0.01270319868389258 0.0001797580975177860 
-0.03396334934034976 -0.06330365445275397 0.07545554920879426 
0.005208554223761915 -0.01774676323555827 0.007508166465907308 
0.01291138077056733 -0.007447358147752905 -0.008482147515926087 
0.01431091640992801 -0.009168374834519438 -0.008958194116334306 
0.01431091640992801 -0.009168374834519438 -0.008958194116334306 
0.01431091640992801 -0.009168374834519438 -0.008958194116334306 
0.009783933535610672 -0.01388536631182716 -0.001493145796379638 
0.007218075072623967 -0.003641890890796052 -0.004976728045256294 
0.007218075072623967 -0.003641890890796052 -0.004976728045256294 
0.01391351715178783 -0.007225254865274758 -0.008699016756368859 
0.007218075072623967 -0.003641890890796052 -0.004976728045256294 
0.005960127623842026 -0.002666187825024256 -0.004513124035171899 
-0.01065740788316359 0.02486772497944492 -0.02164645478424077 
0.0004702953071598511 -0.009370137515786234 0.005158641219508925 
0.003713093102363081 0.01468758756914023 -0.02360028844300398 
0.01111526416182485 -0.005506783277451082 -0.007849382384803216 
0.006885068933033127 -0.004192864807133006 -0.005151363538945569 
0.006885068933033127 -0.004192864807133006 -0.005151363538945569 
0.02100226552118620 -0.01192463235520285 -0.01380143138079848 
0.006634318491153621 -0.004065341432856495 -0.004937334747852189 
0.006617948648520219 -0.004020224628552891 -0.004914699932819683 
0.0004049412446140913 -0.009475126316988543 0.004064903404601543 
0.009146315327190870 -0.005023267590251837 -0.006953888309201951 
0.007672504950868710 -0.004275926947867643 -0.005141807921833720 
0.008673145600465722 -0.003391585978653110 -0.007067935712720598 
0.009647473926035717 -0.01965451222018334 0.002289283306097326 
0.006304475632546319 -0.003650844232651283 -0.004736115224034275 
0.006304475632546319 -0.003650844232651283 -0.004736115224034275 
-0.004945802949053973 -0.01655028395414893 0.01327460553361975 
0.006759346972281970 -0.004194954100674936 -0.004955590130089608 
0.006759346972281970 -0.004194954100674936 -0.004955590130089608 
-0.008787442454692056 0.004325839143099722 -0.005395916801753218 
0.01058856268891593 -0.004931174147345504 -0.007117569062934077 
0.01058856268891593 -0.004931174147345504 -0.007117569062934077 
0.005863216332707553 -0.003208370365540929 -0.003586941446556677 
0.005863216332707553 -0.003208370365540929 -0.003586941446556677 
0.006392727794690898 -0.002997574267432927 -0.004755724513985106 
0.006392727794690898 -0.002997574267432927 -0.004755724513985106 
0.006392727794690898 -0.002997574267432927 -0.004755724513985106 
0.004988812288776459 -0.002467010307665168 -0.003358437657142684 
-0.0004358635464682289 -0.008842216889088577 0.005277097896477497 
0.004988812288776459 -0.002467010307665168 -0.003358437657142684 
0.004988812288776459 -0.002467010307665168 -0.003358437657142684 
0.003620566998682341 -0.001567079296614371 -0.002852512073334144 
0.006203724141292205 -0.002677903810282635 -0.004749380941747204 
-0.03615963880908462 0.06329135179672846 -0.04357793442913682 
-0.03207478071067371 0.05647978156059730 -0.03817223284004724 
-0.1774288383742571 0.3439586440583931 -0.2508138023744799 
-0.003626821915948813 0.006315167874448864 -0.004573911426394633 
-0.03592712135025857 0.04998322191899944 -0.02993630755049642 
-0.02147015275300548 -0.01206983325308851 0.02595921341287066 
-0.003626821915948813 0.006315167874448864 -0.004573911426394633 
-0.003626821915948813 0.006315167874448864 -0.004573911426394633 
-0.003626821915948813 0.006315167874448864 -0.004573911426394633 
-0.006104813558337949 0.01471652296809521 -0.01104922226026953 
-0.02971780603537185 -0.01774493413075610 0.03643318583775494 
-0.01838063686254225 0.03815358766315689 -0.02906368646574417 
-0.01060754965672560 0.009323339769015000 -0.002763766177761762 
-0.006104813558337949 0.01471652296809521 -0.01104922226026953 
-0.01555532793047416 0.01360419085292625 -0.003576736161837570 
-0.02440343201298342 -0.004037860526650429 0.01990164459472606 
-0.03223054290615384 0.007181969649795610 0.01391860920539621 
-0.01580776243187820 0.01517569843440623 -0.006852124261005787 
-0.006104813558337949 0.01471652296809521 -0.01104922226026953 
-0.004325288122092418 0.007180619788551420 -0.005270174675662379 
-0.004325288122092418 0.007180619788551420 -0.005270174675662379 
-0.004325288122092418 0.007180619788551420 -0.005270174675662379 
-0.009897014696398745 0.01867163765300235 -0.01288759721176039 
-0.004325288122092418 0.007180619788551420 -0.005270174675662379 
-0.004325288122092418 0.007180619788551420 -0.005270174675662379 
-0.03250474820677211 0.05931768606925606 -0.04081606329384218 
-0.01597627662151034 0.006831287829813511 0.001256646582689868 
-0.008284818833285811 0.01342975872723734 -0.008918189367049238 
-0.01594154188196021 0.02811959681232229 -0.01776535385645322 
-0.02870762914386330 0.05239437118587969 -0.03496768295767334 
-0.006359887176866978 0.01724542721472841 -0.01325738354045343 
-0.004949017808799956 0.008920607992575175 -0.005123339303909379 
-0.004949017808799956 0.008920607992575175 -0.005123339303909379 
-0.004949017808799956 0.008920607992575175 -0.005123339303909379 
-0.004949017808799956 0.008920607992575175 -0.005123339303909379 
-0.009216039199466057 0.01489862366664486 -0.009343694954361612 
-0.005000405754529757 0.006848464397668944 -0.004011549033777173 
-0.01375065147433114 0.02304286325120917 -0.01686375472870167 
-0.04114414591860698 0.08169197887484062 -0.06272495945443060 
-0.03733101991975604 0.06318866910826827 -0.04669748600876430 
-0.04154665336469233 0.07123882837724420 -0.05202963192934874 
-0.005000405754529757 0.006848464397668944 -0.004011549033777173 
-0.005000405754529757 0.006848464397668944 -0.004011549033777173 
-0.005000405754529757 0.006848464397668944 -0.004011549033777173 
-0.005000405754529757 0.006848464397668944 -0.004011549033777173 
-0.005000405754529757 0.006848464397668944 -0.004011549033777173 
-0.01765203609454439 -0.002814025018806570 0.01362736347720834 
-0.004583257813167516 0.007726832261120488 -0.005339893875974960 
-0.01002585945606570 0.002466258013846963 0.003546707024502399 
-0.004583257813167516 0.007726832261120488 -0.005339893875974960 
-0.004583257813167516 0.007726832261120488 -0.005339893875974960 
-0.03795919419051465 0.01941982171727858 -0.0008877060972059111 
-0.004583257813167516 0.007726832261120488 -0.005339893875974960 
-0.004583257813167516 0.007726832261120488 -0.005339893875974960 
-0.004583257813167516 0.007726832261120488 -0.005339893875974960 
-0.02509813952859569 0.04682552294807528 -0.03102003855917568 
-0.01647231857759334 0.02976543037211609 -0.02231956475611889 
-0.01156621978921929 0.02384317002018847 -0.01642698932874415 
-0.01640940204598194 0.03265983896848797 -0.02194589814887553 
-0.009422148672268073 0.01848274787725758 -0.01304882003008723 
-0.01354461505400646 0.02411319966300933 -0.01660655771322769 
-0.01219376860104564 0.02460967969951206 -0.01661375222829109 
-0.02022566890516328 0.03992004838672952 -0.02720077086517687 
-0.01226332875163466 0.02209461987270464 -0.01410659214581629 
-0.004215633444936301 0.008050159268975917 -0.005332145920584439 
-0.004215633444936301 0.008050159268975917 -0.005332145920584439 
-0.02135166260381679 0.02948732317078285 -0.01749357162768286 
-0.004215633444936301 0.008050159268975917 -0.005332145920584439 
-0.004215633444936301 0.008050159268975917 -0.005332145920584439 
-0.004215633444936301 0.008050159268975917 -0.005332145920584439 
-0.002460173729811316 0.003819350822766524 -0.002969596100787777 
-0.002460173729811316 0.003819350822766524 -0.002969596100787777 
-0.008853140994080782 0.01442105880301392 -0.01107389247517095 
-0.01561886460912824 0.02694466582835854 -0.01959775734665128 
-0.002460173729811316 0.003819350822766524 -0.002969596100787777 
-0.005448220895016754 0.01004606948192948 -0.007565287575929523 
-0.005448220895016754 0.01004606948192948 -0.007565287575929523 
-0.01243017246573399 0.002200427051075775 0.003231877207389073 
-0.02085877264981076 0.01468259447428992 -0.004160690099572457 
-0.005448220895016754 0.01004606948192948 -0.007565287575929523 
-0.005448220895016754 0.01004606948192948 -0.007565287575929523 
-0.005448220895016754 0.01004606948192948 -0.007565287575929523 
-0.008344278602149216 0.01856801720750876 -0.01362412093542469 
-0.01228248098463797 0.02516918630211935 -0.01887006103852320 
-0.01378688024504740 0.01330744296023523 -0.004737520034947335 
-0.008344278602149216 0.01856801720750876 -0.01362412093542469 
-0.008344278602149216 0.01856801720750876 -0.01362412093542469 
-0.008344278602149216 0.01856801720750876 -0.01362412093542469 
-0.008344278602149216 0.01856801720750876 -0.01362412093542469 
-0.008344278602149216 0.01856801720750876 -0.01362412093542469 
-0.01506790039460525 0.01076564691290984 -0.002976418015748999 
-0.05296320396900033 0.007924463317302373 0.01843426325432045 
-0.01907341537013540 0.002640297378534224 0.01015709719455434 
-0.002943393195973320 0.006115654140998061 -0.004274872712923860 
-0.01407259867916943 0.02806988373893748 -0.01811163408305855 
-0.01407259867916943 0.02806988373893748 -0.01811163408305855 
-0.01536298704442002 -0.0004533589589224766 0.007060186471506259 
-0.003606756164463011 0.007375918611654896 -0.006062587157229301 
-0.01108526817517356 9.567370525945665e-05 0.005460230989193710 
-0.01921253449366843 0.03195473320187632 -0.02476975372770710 
-0.006392967264269465 0.01060170798024740 -0.008104296374383174 
-0.006392967264269465 0.01060170798024740 -0.008104296374383174 
-0.006392967264269465 0.01060170798024740 -0.008104296374383174 
-0.01984294184520387 0.03428531690285103 -0.02396559503628623 
-0.006392967264269465 0.01060170798024740 -0.008104296374383174 
-0.006392967264269465 0.01060170798024740 -0.008104296374383174 
-0.01067350717699533 0.004972829456004601 0.0003914583442422600 
-0.006392967264269465 0.01060170798024740 -0.008104296374383174 
-0.006392967264269465 0.01060170798024740 -0.008104296374383174 
-0.008750245719801384 0.01619439885354022 -0.01285220569492450 
-0.03675509730075072 0.07284524654137264 -0.05773679096687342 
-0.008750245719801384 0.01619439885354022 -0.01285220569492450 
-0.008750245719801384 0.01619439885354022 -0.01285220569492450 
-0.008750245719801384 0.01619439885354022 -0.01285220569492450 
-0.008750245719801384 0.01619439885354022 -0.01285220569492450 
-0.008530025141343574 0.02205459287558160 -0.01767045473225438 
-0.005589312177581030 0.01091815535553226 -0.007270969507223281 
-0.005589312177581030 0.01091815535553226 -0.007270969507223281 
-0.02589268583996669 0.05105385887944007 -0.03776323594628591 
-0.01723288644760895 0.04046155901950400 -0.03125689188462625 
-0.005589312177581030 0.01091815535553226 -0.007270969507223281 
-0.006291805217880536 0.003220463866881890 -0.0006889404201291320 
-0.006291805217880536 0.003220463866881890 -0.0006889404201291320 
-0.006491242691964390 0.003935466404525254 -0.0007774224749490843 
-0.01265526285211244 0.02837019687098254 -0.02315765483861369 
-0.004727284531492796 0.01558828546273320 -0.01409407377744777 
-0.1648336021691790 -0.1626340064569772 0.2507624321427069 
-0.06824259067968572 -0.03914783766736250 0.07403319971424814 
-0.01131773529793986 0.02907081808834644 -0.02210269589311543 
-0.001479611021322357 0.009411004889307054 -0.009092596027868220 
-0.001479611021322357 0.009411004889307054 -0.009092596027868220 
-0.01525817744407936 0.03258604369932998 -0.02683571154966172 
-0.01421806248544315 -0.005726084438324909 0.01314381171551070 
-0.01039964862069271 -0.001795626434922556 0.007296052541135065 
-0.01630614264940214 -0.006460099163845358 0.01662921882114928 
-0.001410869368067023 0.008324819222153240 -0.008134044236544048 
-0.03408457736945231 0.0006025469536601023 0.01770623102243588 
-0.007414828742984328 0.0008168747694074045 0.003680680974787688 
-0.01551514642441223 0.01932536422209004 -0.01188492611536144 
-0.002940712963762544 0.01113643752004934 -0.01039948522503110 
-0.02377435353519932 -0.002460070422264953 0.01470778351396190 
-0.002940712963762544 0.01113643752004934 -0.01039948522503110 
-0.01687662202752431 -0.003997057541210925 0.01390064921515940 
-0.02388187160406697 -0.01158999696453257 0.02316609834252633 
-0.002940712963762544 0.01113643752004934 -0.01039948522503110 
-0.007485271825904527 0.01910188349484904 -0.01548120517813362 
-0.002940712963762544 0.01113643752004934 -0.01039948522503110 
-0.002940712963762544 0.01113643752004934 -0.01039948522503110 
-0.01771751348778458 0.03421056639217791 -0.02628771171241254 
-0.005449826384795471 0.008665710283592360 -0.005312279272452103 
-0.005449826384795471 0.008665710283592360 -0.005312279272452103 
-0.009196523437075634 0.01666617765788380 -0.01070539849898632 
-0.02025026633132354 -0.01305875062313976 0.02475794537213237 
-0.005449826384795471 0.008665710283592360 -0.005312279272452103 
-0.005089948109282180 0.007941696684505268 -0.004827394819793769 
-0.005089948109282180 0.007941696684505268 -0.004827394819793769 
-0.005089948109282180 0.007941696684505268 -0.004827394819793769 
-0.005089948109282180 0.007941696684505268 -0.004827394819793769 
-0.01958655390373231 0.03566757368549062 -0.02563698137252323 
-0.003866343210800249 0.008742935729015423 -0.006490202608675237 
-0.003866343210800249 0.008742935729015423 -0.006490202608675237 
-0.003866343210800249 0.008742935729015423 -0.006490202608675237 
-0.003866343210800249 0.008742935729015423 -0.006490202608675237 
-0.008425122828853467 0.01536645009154327 -0.01054839521571653 
-0.003746697052280163 0.008000467374291442 -0.005393119226534217 
-0.003746697052280163 0.008000467374291442 -0.005393119226534217 
-0.003746697052280163 0.008000467374291442 -0.005393119226534217 
-0.003746697052280163 0.008000467374291442 -0.005393119226534217 
-0.002942334284648468 0.005620325141416790 -0.004355223024457855 
-0.002942334284648468 0.005620325141416790 -0.004355223024457855 
-0.002942334284648468 0.005620325141416790 -0.004355223024457855 
-0.01222002175296212 0.02182555033732216 -0.01507709953547443 
-0.01222002175296212 0.02182555033732216 -0.01507709953547443 
-0.008734709130988060 0.01454145498549777 -0.01125975576423435 
-0.01966258354475720 0.003788784487892185 0.006705521207464632 
-0.003938202382488755 0.006601169094610598 -0.005245940103098505 
-0.003938202382488755 0.006601169094610598 -0.005245940103098505 
-0.003938202382488755 0.006601169094610598 -0.005245940103098505 
-0.003938202382488755 0.006601169094610598 -0.005245940103098505 
-0.003938202382488755 0.006601169094610598 -0.005245940103098505 
-0.003938202382488755 0.006601169094610598 -0.005245940103098505 
-0.003938202382488755 0.006601169094610598 -0.005245940103098505 
-0.004796506748499305 0.007940285890887170 -0.006013815661135844 
-0.004796506748499305 0.007940285890887170 -0.006013815661135844 
-0.004796506748499305 0.007940285890887170 -0.006013815661135844 
-0.004796506748499305 0.007940285890887170 -0.006013815661135844 
-0.004796506748499305 0.007940285890887170 -0.006013815661135844 
-0.009341065610641288 0.01590573186568688 -0.01109553561423836 
-0.002911559927282077 0.005660710518954288 -0.003223242039737257 
-0.002911559927282077 0.005660710518954288 -0.003223242039737257 
-0.004084858098410906 0.006811570236131158 -0.005405701589089576 
-0.004084858098410906 0.006811570236131158 -0.005405701589089576 
-0.004084858098410906 0.006811570236131158 -0.005405701589089576 
-0.004084858098410906 0.006811570236131158 -0.005405701589089576 
-0.004084858098410906 0.006811570236131158 -0.005405701589089576 
-0.004084858098410906 0.006811570236131158 -0.005405701589089576 
-0.01612799879297618 0.01035053376975826 -0.003719650314955403 
-0.003601406464229786 0.006878777223638151 -0.004342018482865201 
-0.003601406464229786 0.006878777223638151 -0.004342018482865201 
-0.007810966496164481 0.0009780054116141409 0.002157733960122188 
-0.003489941469634124 0.005914077154746670 -0.004782505338157477 
-0.003489941469634124 0.005914077154746670 -0.004782505338157477 
-0.003489941469634124 0.005914077154746670 -0.004782505338157477 
-0.003489941469634124 0.005914077154746670 -0.004782505338157477 
-0.003489941469634124 0.005914077154746670 -0.004782505338157477 
-0.02321769048941039 -0.01246947761264214 0.02597922252213021 
-0.003915290097728029 0.008206328402880117 -0.005143317800361380 
-0.003915290097728029 0.008206328402880117 -0.005143317800361380 
-0.008003451702198398 0.01649951289106822 -0.01104958408508855 
-0.003915290097728029 0.008206328402880117 -0.005143317800361380 
-0.003915290097728029 0.008206328402880117 -0.005143317800361380 
-0.003915290097728029 0.008206328402880117 -0.005143317800361380 
-0.004558779618053218 0.006623514362527846 -0.004058192607041296 
-0.004558779618053218 0.006623514362527846 -0.004058192607041296 
-0.004558779618053218 0.006623514362527846 -0.004058192607041296 
-0.004558779618053218 0.006623514362527846 -0.004058192607041296 
-0.004558779618053218 0.006623514362527846 -0.004058192607041296 
-0.004809524289758504 0.008414677304724408 -0.006566424339466152 
-0.004544558862141983 0.007965445974799706 -0.005081719953102519 
-0.004544558862141983 0.007965445974799706 -0.005081719953102519 
-0.004544558862141983 0.007965445974799706 -0.005081719953102519 
-0.004544558862141983 0.007965445974799706 -0.005081719953102519 
-0.006366127541031577 0.01054451467695108 -0.007498634471279318 
-0.006366127541031577 0.01054451467695108 -0.007498634471279318 
-0.003247673510170439 0.006177280573426140 -0.005001477749579551 
-0.003247673510170439 0.006177280573426140 -0.005001477749579551 
-0.003247673510170439 0.006177280573426140 -0.005001477749579551 
-0.02422465901638645 0.005537931390524647 0.008503727500715702 
-0.005909695763172728 0.01289255001811060 -0.01051582973419533 
-0.01195627742969421 -0.005561222323721536 0.01154607044567436 
-0.004088161604470369 0.008293184488188108 -0.005906266284727173 
-0.01083726816154010 -0.01067260347052544 0.01764348741898010 
-0.01120003471807579 -0.01068263126603176 0.01776035779340064 
-0.03150605963132893 -0.03191205695941095 0.05113868323350474 
-0.006950726831785490 -0.006107763325311587 0.01085035374693900 
-0.006950726831785490 -0.006107763325311587 0.01085035374693900 
-0.01381538102932063 -0.01314523257221045 0.02252739457202106 
-0.01381538102932063 -0.01314523257221045 0.02252739457202106 
-0.006950726831785490 -0.006107763325311587 0.01085035374693900 
-0.01099304873729984 -0.01021403604734118 0.01713973598673271 
-0.006433226973438532 -0.005443170530786484 0.009819646407497884 
-0.006433226973438532 -0.005443170530786484 0.009819646407497884 
-0.01532525280969871 -0.01603089884322826 0.02400761709773161 
-0.01532525280969871 -0.01603089884322826 0.02400761709773161 
-0.01500355988625918 -0.01495411021463918 0.02366988975223919 
-0.03936655839313438 -0.03370320659660737 0.05833261683432360 
-0.004085411128264719 -0.005385723633736310 0.006770533222583281 
-0.01187318124127074 -0.01067074037752369 0.01707588496232271 
-0.03990439427164597 -0.04459873894776097 0.06405516989083433 
-0.02497450275006036 -0.03131127284461572 0.04192273858872686 
-0.01504673576969240 -0.01873345702245292 0.02472284980171319 
-0.02866010862905402 -0.03054270690631453 0.04440338674548646 
-0.007478512010710552 -0.007280244906395440 0.01152281814642301 
-0.01330411475706615 -0.01380447804646967 0.02089800335045685 
-0.007478512010710552 -0.007280244906395440 0.01152281814642301 
-0.007478512010710552 -0.007280244906395440 0.01152281814642301 
-0.005292737520954325 -0.006260517607605654 0.008283316418460397 
-0.03976501699391205 -0.04632794486550672 0.06383411828047246 
-0.01087360772025188 -0.01266507584265111 0.01706917000347293 
-0.009892364282045485 -0.01081050937973742 0.01582779940019439 
-0.005292737520954325 -0.006260517607605654 0.008283316418460397 
-0.005292737520954325 -0.006260517607605654 0.008283316418460397 
-0.01010493171751251 -0.01245105863003082 0.01668697202619948 
-0.005292737520954325 -0.006260517607605654 0.008283316418460397 
-0.04583454168164090 -0.05224192536721006 0.07438624187311979 
-0.006723621792456033 -0.007802370294598916 0.01064770291967570 
-0.006723621792456033 -0.007802370294598916 0.01064770291967570 
-0.006723621792456033 -0.007802370294598916 0.01064770291967570 
-0.006723621792456033 -0.007802370294598916 0.01064770291967570 
-0.01386056631802349 -0.01460039819763374 0.02276966058111477 
-0.004249307886290295 -0.004574867940720169 0.006910004046461640 
-0.01277856716601478 -0.01515256845765564 0.02098110436227482 
-0.005121446687250677 -0.006075073503121902 0.007999933472867315 
-0.005121446687250677 -0.006075073503121902 0.007999933472867315 
-0.005121446687250677 -0.006075073503121902 0.007999933472867315 
-0.005121446687250677 -0.006075073503121902 0.007999933472867315 
-0.006435646694094112 -0.007291681005041646 0.01082475039226787 
-0.006435646694094112 -0.007291681005041646 0.01082475039226787 
-0.01330030089162925 -0.01432915025194051 0.02250179121734993 
-0.006435646694094112 -0.007291681005041646 0.01082475039226787 
-0.006435646694094112 -0.007291681005041646 0.01082475039226787 
-0.01746084829455842 -0.01893712371590246 0.02820800933742818 
-0.006435646694094112 -0.007291681005041646 0.01082475039226787 
-0.01782686837622910 -0.01998005630068026 0.02931468135781120 
-0.006435646694094112 -0.007291681005041646 0.01082475039226787 
-0.006791594921043832 -0.008138383523506848 0.01094544798380935 
-0.004280539912725866 -0.005628878524242795 0.008495754718625435 
-0.01420637898094889 -0.01649860369405151 0.02580582790207733 
-0.02724005657691232 -0.02907206811894928 0.04383687751881587 
-0.004280539912725866 -0.005628878524242795 0.008495754718625435 
-0.004828968568383252 -0.005108262362322501 0.007885235701437782 
-0.004828968568383252 -0.005108262362322501 0.007885235701437782 
-0.004828968568383252 -0.005108262362322501 0.007885235701437782 
-0.004828968568383252 -0.005108262362322501 0.007885235701437782 
-0.006981951570717237 -0.007845642430853703 0.01079716478331860 
-0.006981951570717237 -0.007845642430853703 0.01079716478331860 
-0.006981951570717237 -0.007845642430853703 0.01079716478331860 
-0.006981951570717237 -0.007845642430853703 0.01079716478331860 
-0.006981951570717237 -0.007845642430853703 0.01079716478331860 
-0.006981951570717237 -0.007845642430853703 0.01079716478331860 
-0.004559821763861305 -0.004770865516554692 0.007320089579234830 
-0.01955784630065755 -0.02316744460502443 0.03401226580738492 
-0.004559821763861305 -0.004770865516554692 0.007320089579234830 
-0.004559821763861305 -0.004770865516554692 0.007320089579234830 
-0.008536969345844955 -0.009415772688848686 0.01443501280399481 
-0.004559821763861305 -0.004770865516554692 0.007320089579234830 
-0.009764557689563098 -0.01014264547541714 0.01556435467945061 
-0.009764557689563098 -0.01014264547541714 0.01556435467945061 
-0.004599626761091159 -0.004549991772131764 0.007544482981733991 
-0.004599626761091159 -0.004549991772131764 0.007544482981733991 
-0.004599626761091159 -0.004549991772131764 0.007544482981733991 
-0.004599626761091159 -0.004549991772131764 0.007544482981733991 
-0.004599626761091159 -0.004549991772131764 0.007544482981733991 
-0.005697668471150674 -0.006091691344498838 0.01019417840073936 
-0.005697668471150674 -0.006091691344498838 0.01019417840073936 
-0.01102520160046431 -0.01164544271086081 0.01738325894516031 
-0.006213007403906127 -0.005454901688435651 0.008979603337421226 
-0.006213007403906127 -0.005454901688435651 0.008979603337421226 
-0.005164930928471938 -0.005592653703285371 0.008019871697716617 
-0.009142078510455589 -0.01023756087557937 0.01513479492247660 
-0.005011631670642033 -0.005475538484781801 0.008315173552919134 
-0.005011631670642033 -0.005475538484781801 0.008315173552919134 
-0.005011631670642033 -0.005475538484781801 0.008315173552919134 
-0.005011631670642033 -0.005475538484781801 0.008315173552919134 
-0.008298613377818868 -0.005306441689159887 0.01140194046026796 
-0.008298613377818868 -0.005306441689159887 0.01140194046026796 
-0.008298613377818868 -0.005306441689159887 0.01140194046026796 
-0.008298613377818868 -0.005306441689159887 0.01140194046026796 
-0.008298613377818868 -0.005306441689159887 0.01140194046026796 
-0.008298613377818868 -0.005306441689159887 0.01140194046026796 
-0.008298613377818868 -0.005306441689159887 0.01140194046026796 
-0.008298613377818868 -0.005306441689159887 0.01140194046026796 
-0.008298613377818868 -0.005306441689159887 0.01140194046026796 
-0.004321025026530357 -0.004936071743132529 0.006940239298279665 
-0.004321025026530357 -0.004936071743132529 0.006940239298279665 
-0.004321025026530357 -0.004936071743132529 0.006940239298279665 
-0.01585398420640470 -0.02010064109934689 0.02768230634936666 
-0.008086798658411757 -0.01171185887818353 0.01506920429720452 
-0.003977147581983650 -0.004644907172293994 0.007114923224759978 
-0.005281008168370857 -0.005255840536139675 0.008661905613443873 
-0.005281008168370857 -0.005255840536139675 0.008661905613443873 
-0.005281008168370857 -0.005255840536139675 0.008661905613443873 
-0.005281008168370857 -0.005255840536139675 0.008661905613443873 
-0.005281008168370857 -0.005255840536139675 0.008661905613443873 
-0.005281008168370857 -0.005255840536139675 0.008661905613443873 
-0.005281008168370857 -0.005255840536139675 0.008661905613443873 
-0.02192602357573008 -0.02775966861368497 0.03793157624383861 
-0.01143681622563820 -0.01456357644793582 0.02034323489068603 
-0.006309588955821129 -0.008882552480628199 0.01250200705176417 
-0.006309588955821129 -0.008882552480628199 0.01250200705176417 
-0.006309588955821129 -0.008882552480628199 0.01250200705176417 
-0.006309588955821129 -0.008882552480628199 0.01250200705176417 
-0.006309588955821129 -0.008882552480628199 0.01250200705176417 
-0.01678692738778329 -0.01987196652879084 0.02732750178316375 
-0.02457469750078930 -0.02515698327257822 0.03763285352290318 
-0.005677013153533694 -0.007005551143323984 0.009184685745413491 
-0.01550318981474199 -0.01970998210157838 0.03070307547081352 
-0.01097620694042465 -0.01499299062427065 0.02323802715085885 
-0.003051184207957444 -0.004929280861627871 0.007458011805143115 
-0.003051184207957444 -0.004929280861627871 0.007458011805143115 
-0.003051184207957444 -0.004929280861627871 0.007458011805143115 
-0.003051184207957444 -0.004929280861627871 0.007458011805143115 
-0.004812194196558179 -0.006190541022425164 0.008403655607739088 
-0.01393590906376177 -0.01513349506126026 0.02430013444019050 
-0.005855946026340653 -0.008159018212890374 0.01155738130567350 
-0.005855946026340653 -0.008159018212890374 0.01155738130567350 
-0.01201793937482721 -0.01396104690000218 0.02062830509376231 
-0.009276866108694088 -0.01151664217612920 0.01733461744493000 
-0.004502736098387654 -0.005393183199080211 0.008285456082507773 
-0.006864654197535137 -0.007037469246898860 0.01167704082508206 
-0.006864654197535137 -0.007037469246898860 0.01167704082508206 
-0.005825602746355602 -0.006524233140074232 0.009375185204033843 
-0.005825602746355602 -0.006524233140074232 0.009375185204033843 
-0.01125027858160029 -0.01289943972149764 0.01801072075765402 
-0.003886541329754608 -0.004564840145213855 0.006793133672041093 
-0.003886541329754608 -0.004564840145213855 0.006793133672041093 
-0.003886541329754608 -0.004564840145213855 0.006793133672041093 
-0.004526982874317340 -0.004716991477307725 0.007465048319954669 
-0.004526982874317340 -0.004716991477307725 0.007465048319954669 
-0.004526982874317340 -0.004716991477307725 0.007465048319954669 
-0.003765773631881401 -0.006775787135051004 0.008128964998924855 
-0.003765773631881401 -0.006775787135051004 0.008128964998924855 
-0.003765773631881401 -0.006775787135051004 0.008128964998924855 
-0.003422286634079547 -0.004670526563562574 0.007494559263207961 
-0.003422286634079547 -0.004670526563562574 0.007494559263207961 
-0.007787770113006019 -0.005285016743787382 0.01030535173973943 
-0.007787770113006019 -0.005285016743787382 0.01030535173973943 
-0.007787770113006019 -0.005285016743787382 0.01030535173973943 
-0.007787770113006019 -0.005285016743787382 0.01030535173973943 
-0.01179908012984884 -0.01248887360900254 0.01843078864508083 
-0.006161993348486557 -0.005802028687111803 0.009070923788088810 
-0.006161993348486557 -0.005802028687111803 0.009070923788088810 
-0.006161993348486557 -0.005802028687111803 0.009070923788088810 
-0.006161993348486557 -0.005802028687111803 0.009070923788088810 
-0.005424675835244688 -0.006375206581423411 0.008635535553620180 
-0.005424675835244688 -0.006375206581423411 0.008635535553620180 
-0.005442601642898188 -0.005260574247273525 0.008886600900477359 
-0.005442601642898188 -0.005260574247273525 0.008886600900477359 
-0.005442601642898188 -0.005260574247273525 0.008886600900477359 
-0.005442601642898188 -0.005260574247273525 0.008886600900477359 
-0.005442601642898188 -0.005260574247273525 0.008886600900477359 
-0.005637086781362283 -0.006686844921890737 0.009359864856992023 
-0.005637086781362283 -0.006686844921890737 0.009359864856992023 
-0.004483237425324840 -0.005609150922535191 0.008423472282974536 
-0.004483237425324840 -0.005609150922535191 0.008423472282974536 
-0.004774130010306434 -0.006123458977048985 0.009049161362422233 
-0.004774130010306434 -0.006123458977048985 0.009049161362422233 
-0.004539933128873583 -0.005690596427505672 0.008378784400929658 
-0.003981574495469234 -0.009289566666695790 0.01065920305836044 
-0.006732638814054537 -0.008285195735961790 0.01117857760428385 
-0.006732638814054537 -0.008285195735961790 0.01117857760428385 
-0.006732638814054537 -0.008285195735961790 0.01117857760428385 
-0.006732638814054537 -0.008285195735961790 0.01117857760428385 
-0.006732638814054537 -0.008285195735961790 0.01117857760428385 
-0.006732638814054537 -0.008285195735961790 0.01117857760428385 
-0.1541764481085926 -0.1079282986490520 -0.04869000951503346 
