solver_type L2R_L2LOSS_SVC
nr_class 3
label 0 1 2
nr_feature 584
bias 1.000000000000000
w
-0.1511022865946921 -0.1021410395488785 -0.04050028247486245 
0.07954398467005289 -0.08891487194765124 -0.04046589442466034 
0.01754744168434037 -0.01758264452964482 -0.004220550872639559 
-0.006734429096808155 -0.001586469571479794 0.002610172355690782 
-0.003297658987073206 -0.008960052567416011 0.008815503328914340 
0.1298851276776965 -0.06190520841583823 -0.08689030228325674 
-0.01996199173204612 -0.08687796386036663 0.007257873476805973 
0.2644575003031303 -0.1413750277410777 -0.1806569495258468 
0.2908927705599518 -0.1554792476273667 -0.1998268527371422 
0.04720732154317415 -0.03210311295145689 -0.02449236565852304 
0.009800775127855113 -0.004488374345704569 -0.006422354135464336 
0.009800775127855113 -0.004488374345704569 -0.006422354135464336 
-0.02985029743468257 0.06680419228089952 -0.08234503634357612 
0.09700186762589692 -0.04621275509166802 -0.06792374487975972 
0.05702572663287092 -0.07300952924842471 -0.01338037950331405 
0.006734738620068929 -0.04564611994957231 0.001888968635347889 
0.009090561743773764 -0.004082915331833388 -0.006460636942402330 
0.009090561743773764 -0.004082915331833388 -0.006460636942402330 
0.05051709309405723 -0.02807787794523297 -0.03302412113855271 
-0.01033168877237936 -0.02106327804786575 0.02224039231944280 
0.04736273779752705 -0.02648893445188931 -0.02964408013295064 
0.009090561743773764 -0.004082915331833388 -0.006460636942402330 
-0.002559151523091301 0.03883237861165179 -0.04845835547871382 
0.02472096488634874 -0.02177184631849546 -0.01373809867728937 
0.002614684395822973 -0.02611177174439959 0.01312383210686908 
0.006506824025193468 -0.002631393949405625 -0.005102461502191941 
0.006506824025193468 -0.002631393949405625 -0.005102461502191941 
0.02070353601629823 -0.01183454681932148 -0.01332904249049398 
0.006660281564236502 -0.004100258586649000 -0.005008077123647423 
0.04092975368098403 -0.02180844433015848 -0.02996985591249598 
0.04396762759127228 -0.03036489717522379 -0.03253746314142839 
-0.009606727118523330 0.004583923634383721 -0.004210244359689998 
0.02276805687572255 -0.009146879386526821 -0.03700475105075165 
0.01031635110987412 -0.004827637110208068 -0.006621100422423420 
0.01031635110987412 -0.004827637110208068 -0.006621100422423420 
0.005712964836802651 -0.01310640616193998 0.002508879501790830 
0.009898557223429826 -0.01615347239261680 0.0005552801973231421 
0.01383063146079446 -0.007190910282760664 -0.008529181621346290 
0.008829603830433626 -0.01894190693439682 0.002773043737716876 
0.003659213360771517 0.01469070457410952 -0.02350706124630829 
0.05423573096015912 -0.02384109618059111 -0.04521257007475790 
0.004935118047853845 -0.002463797478129779 -0.003405898863279468 
-0.0004893271464744623 -0.008863094658584975 0.005177765074664102 
0.004935118047853845 -0.002463797478129779 -0.003405898863279468 
0.01402134325180807 -0.006811263466471446 -0.009264957969595830 
-0.003314407360995798 0.02367542403216163 -0.03248343330327452 
0.004935118047853845 -0.002463797478129779 -0.003405898863279468 
0.003477934683041524 -0.001514616763216217 -0.002600634322224659 
0.008846506441821654 -0.005124038431025693 -0.006145618623682816 
0.04683852402695989 -0.01754217944341198 -0.04609622412669540 
0.02088792710221487 -0.01169819521453540 -0.01530690621044943 
0.006261704967246106 -0.002704416836964423 -0.004834678167439667 
0.008123610326321790 -0.02169671082286378 0.004805420062727100 
0.03671232395233424 -0.02712446644659635 -0.02275638022184387 
0.005168528043195535 -0.001828981137517839 -0.004104707733617367 
0.003349774702332631 0.01004746388522350 -0.01851250071863258 
0.005168528043195535 -0.001828981137517839 -0.004104707733617367 
-0.004915929175010955 -0.01234861757399641 0.01198729133076121 
-0.0003849157498049534 -0.02518208806070775 0.008834398786467162 
0.006015914680902082 -0.002476770805474000 -0.004719863805859840 
0.006015914680902082 -0.002476770805474000 -0.004719863805859840 
0.006015914680902082 -0.002476770805474000 -0.004719863805859840 
0.006015914680902082 -0.002476770805474000 -0.004719863805859840 
0.006015914680902082 -0.002476770805474000 -0.004719863805859840 
0.01520052352380650 -0.007552013959440891 -0.01176034386141527 
0.006015914680902082 -0.002476770805474000 -0.004719863805859840 
0.006015914680902082 -0.002476770805474000 -0.004719863805859840 
0.01840361321511356 -0.009644285754697014 -0.01265020465675786 
0.006644303946656055 -0.003400405173106362 -0.003867968490738576 
0.08845344743829181 -0.04885813205862201 -0.06985802805525598 
0.02031374040241157 -0.01124910023737248 -0.01483781880759107 
0.01315685782350907 -0.01652314752725611 -0.005235332949537899 
0.006007157445485672 0.004824409108309362 -0.01871502858618656 
0.01121189278827349 -0.002100095105388206 -0.01497886441444322 
0.003635630790758671 -0.001957612162668217 -0.002935129124300151 
-0.06642011950843266 0.08292080281099366 -0.06119389975063781 
0.003474284130654191 0.003772160061837932 -0.009960593655920235 
0.008291776327048849 -0.004693036860261569 -0.004789287681965966 
0.008291776327048849 -0.004693036860261569 -0.004789287681965966 
0.02260469830179278 -0.01391114122508332 -0.01381179180215596 
-0.01024317299514077 0.007357656872186963 -0.01090810123214716 
0.002717569864311208 0.002709107855410931 -0.008029922618383476 
0.005319012621031586 -0.003162874310740400 -0.003841195943280743 
0.005319012621031586 -0.003162874310740400 -0.003841195943280743 
0.005319012621031586 -0.003162874310740400 -0.003841195943280743 
0.008686715406464292 -0.01251899730123908 -0.0001318968016971839 
0.004886173038793370 0.001078323050706168 -0.008697242035971622 
-0.009386417693313530 0.02300907598404453 -0.02300563905876503 
-0.0002379351614243703 0.006332018409638148 -0.01218824768496248 
0.02477795022206139 -0.01466596798110994 -0.01592570642142537 
0.004205708284038873 -0.001950614296007950 -0.003177135426033534 
0.004205708284038873 -0.001950614296007950 -0.003177135426033534 
-0.003176291449874723 0.01339708777073663 -0.01428414034934173 
0.03502294695335085 -0.02066003237946777 -0.03392239937477927 
0.005749679366379214 -0.003115013884331386 -0.002955673873573795 
0.005749679366379214 -0.003115013884331386 -0.002955673873573795 
-0.002472395988226669 -0.02480124700973769 0.01714195681987671 
0.008240297075211945 -0.0002755966795809892 -0.01268391935770584 
0.008240297075211945 -0.0002755966795809892 -0.01268391935770584 
0.006466122464825337 -0.004047716977082213 -0.004803441829672177 
0.01269580831286065 -0.007891872468386728 -0.007965649617902570 
-0.009810364253312992 -0.02168519153980325 0.02200832673159547 
0.006496847607115752 -0.004471450251699777 -0.004336736415104103 
0.006496847607115752 -0.004471450251699777 -0.004336736415104103 
0.04289697867523625 -0.02479992073793077 -0.02814158102398674 
0.006362786834639132 -0.003509825109617100 -0.004944920831266690 
0.0005339902879051533 -0.01005619224856056 0.004387352611388608 
0.008476251970995208 -0.01052698996963688 -0.007022809392152581 
0.008160099670143424 -0.004946061400488769 -0.005668786213337592 
-0.007267771063644220 -0.008022230531154861 0.006688016408124117 
-0.0004485558246083343 -0.008925062692005973 0.005144924416257088 
0.005494480566276538 -0.002807044500022870 -0.003727069209875361 
-0.01040133378715908 0.01844046457718254 -0.02179573169144377 
0.01546467305421932 -0.008902497614893791 -0.009338563303434461 
0.003708224979165963 -0.002532495797458205 -0.001733773312532096 
-0.0003651773679431692 0.005759146080371837 -0.007696943259756635 
0.003708224979165963 -0.002532495797458205 -0.001733773312532096 
0.003708224979165963 -0.002532495797458205 -0.001733773312532096 
0.003708224979165963 -0.002532495797458205 -0.001733773312532096 
0.003000567275580310 -0.001000046329997601 -0.002380808330289067 
-0.001484546504827430 -0.01657277129342843 0.01074427124649728 
0.003000567275580310 -0.001000046329997601 -0.002380808330289067 
0.006085657928373919 -0.003347419658344067 -0.003478250776027295 
0.006085657928373919 -0.003347419658344067 -0.003478250776027295 
0.006085657928373919 -0.003347419658344067 -0.003478250776027295 
0.01854346932865192 -0.01052545062391525 -0.01178871609580491 
0.01255453744944484 -0.006820016192021736 -0.007253953782281756 
0.006229685848035315 -0.003844155491304516 -0.003162207788230392 
-0.006535100499724466 0.01836409904598869 -0.01684230817133077 
0.01294823820407006 -0.007468858949145934 -0.008592065094161465 
0.01294823820407006 -0.007468858949145934 -0.008592065094161465 
0.007560686562984646 -0.01269646766246894 7.380620763261271e-05 
-0.03417035624569886 -0.06422978037018068 0.07586384295680466 
0.005133777957024068 -0.01818949720761140 0.007792135992325377 
0.01294823820407006 -0.007468858949145934 -0.008592065094161465 
0.01431292197474393 -0.009218104364821749 -0.009022504120189990 
0.01431292197474393 -0.009218104364821749 -0.009022504120189990 
0.01431292197474393 -0.009218104364821749 -0.009022504120189990 
0.009974897148088548 -0.01392009138048083 -0.001691306375148195 
0.007280877777481214 -0.003672866970825559 -0.005070425882235227 
0.007280877777481214 -0.003672866970825559 -0.005070425882235227 
0.007280877777481214 -0.003672866970825559 -0.005070425882235227 
0.006021862440701197 -0.002693840238010045 -0.004604319360528211 
-0.01037551408571615 0.02389223460909473 -0.02186601137799391 
0.0005665981616659586 -0.009416547478888499 0.004981613123969644 
0.01122269777422616 -0.005561229913511264 -0.007992301437897140 
0.006908056046602457 -0.004227663241142028 -0.005220241200764099 
0.006908056046602457 -0.004227663241142028 -0.005220241200764099 
0.006638019167832255 -0.004052501064891628 -0.004974666977324228 
0.0004361766222967733 -0.009537904314098280 0.003964879508057411 
0.009184608842904418 -0.005075243153966891 -0.007040480055555434 
0.007493500768748478 -0.004216244920737369 -0.004862209627735488 
0.008391315425373800 -0.003317823315211473 -0.006545153133394776 
0.006323675917119060 -0.003680222676065238 -0.004790192274914710 
0.006323675917119060 -0.003680222676065238 -0.004790192274914710 
-0.004929565823943227 -0.01662588699546390 0.01312574510568416 
0.006779975626596398 -0.004228639540434545 -0.005018439446666356 
0.006779975626596398 -0.004228639540434545 -0.005018439446666356 
0.005923539632004902 -0.003226685030694997 -0.003673721050653626 
0.005923539632004902 -0.003226685030694997 -0.003673721050653626 
0.006449545306977421 -0.003026059873062129 -0.004843951361422076 
0.006449545306977421 -0.003026059873062129 -0.004843951361422076 
0.006449545306977421 -0.003026059873062129 -0.004843951361422076 
-0.03648307809489069 0.06324492562376786 -0.04373074943808035 
-0.03228612187010509 0.05641711319169891 -0.03828198604316092 
-0.1781212718417870 0.3426921995510861 -0.2508675333431589 
-0.003666290255521669 0.006247076398715407 -0.004528818296208700 
-0.03059569621449813 0.05612398917767015 -0.03897397710626136 
-0.02156920211252749 -0.01214350057434590 0.02590218405462589 
-0.003666290255521669 0.006247076398715407 -0.004528818296208700 
-0.003666290255521669 0.006247076398715407 -0.004528818296208700 
-0.003666290255521669 0.006247076398715407 -0.004528818296208700 
-0.006216994873010319 0.01476368938742583 -0.01105724563932579 
-0.03005783654844417 -0.01867937124771506 0.03654147440448453 
-0.01852087322372670 0.03824360447820140 -0.02924798631922894 
-0.01083168736579489 0.009428004464471685 -0.002774366917518621 
-0.006216994873010319 0.01476368938742583 -0.01105724563932579 
-0.01567009506819360 0.01358268872818463 -0.003620138167582898 
-0.02444126565766722 -0.004068644410136831 0.01972791198158538 
-0.03228793909573609 0.007144222858377766 0.01371656837407591 
-0.01596104057586157 0.01511635424254683 -0.006868330717908064 
-0.006216994873010319 0.01476368938742583 -0.01105724563932579 
-0.004310364271801370 0.007180016471082602 -0.005328960321904015 
-0.004310364271801370 0.007180016471082602 -0.005328960321904015 
-0.004310364271801370 0.007180016471082602 -0.005328960321904015 
-0.009929807329288463 0.01857419313282683 -0.01288257962039558 
-0.004310364271801370 0.007180016471082602 -0.005328960321904015 
-0.004310364271801370 0.007180016471082602 -0.005328960321904015 
-0.03253640719046805 0.05919364105192973 -0.04108397920204515 
-0.01593814584302657 0.006780937216466880 0.001076142551367827 
-0.008173570126462401 0.01296669918910671 -0.009004830527338496 
-0.01572916618927249 0.02717569156316590 -0.01786691696400846 
-0.02851357240546414 0.05242329024580428 -0.03540235161203947 
-0.006211128265319932 0.01679524172956355 -0.01335668626043747 
-0.004817492196394658 0.008465196922099500 -0.005171305973954268 
-0.004817492196394658 0.008465196922099500 -0.005171305973954268 
-0.004817492196394658 0.008465196922099500 -0.005171305973954268 
-0.004817492196394658 0.008465196922099500 -0.005171305973954268 
-0.01442997006869199 0.003476246151532538 0.005616792056114180 
-0.009632273596394868 0.01508281206452608 -0.008744270142349075 
-0.005204735342787820 0.006924504213697568 -0.003736164171743336 
-0.01438730942043936 0.02325108559428747 -0.01598834306161828 
-0.04112045791466833 0.08150177501272605 -0.06282369424705157 
-0.03706415372877984 0.06250994292900230 -0.04684064595388721 
-0.04149169198238689 0.07066825077983081 -0.05184875192449295 
-0.005204735342787820 0.006924504213697568 -0.003736164171743336 
-0.005204735342787820 0.006924504213697568 -0.003736164171743336 
-0.005204735342787820 0.006924504213697568 -0.003736164171743336 
-0.005204735342787820 0.006924504213697568 -0.003736164171743336 
-0.005204735342787820 0.006924504213697568 -0.003736164171743336 
-0.01774035449293789 -0.002806024293755914 0.01352276214530145 
-0.004565814860484929 0.007736437200174344 -0.005402644026324072 
-0.01010889103520328 0.002499294199537477 0.003488251597137494 
-0.004565814860484929 0.007736437200174344 -0.005402644026324072 
-0.004565814860484929 0.007736437200174344 -0.005402644026324072 
-0.03786220312422677 0.01878330413217126 -0.001129513544920979 
-0.004565814860484929 0.007736437200174344 -0.005402644026324072 
-0.004565814860484929 0.007736437200174344 -0.005402644026324072 
-0.004565814860484929 0.007736437200174344 -0.005402644026324072 
-0.02504112447744097 0.04668925721000174 -0.03118759807294019 
-0.01661598813119588 0.02965412544365186 -0.02241903011221421 
-0.01156605890906352 0.02374795390649430 -0.01647262865644432 
-0.01649978849308215 0.03278704309541521 -0.02185353366918115 
-0.009268371953264505 0.01802011435804841 -0.01319777832929384 
-0.01359683174585168 0.02417017475898691 -0.01675049428804726 
-0.01207225023947510 0.02462873524458670 -0.01684542769857541 
-0.02013271890628775 0.03984004725733375 -0.02741251798073107 
-0.01241890535350930 0.02220944823196985 -0.01389426498969106 
-0.004427538253607048 0.008158307850828508 -0.005008105970605740 
-0.004427538253607048 0.008158307850828508 -0.005008105970605740 
-0.02155272481807795 0.02944154459724535 -0.01725614840032976 
-0.004427538253607048 0.008158307850828508 -0.005008105970605740 
-0.004427538253607048 0.008158307850828508 -0.005008105970605740 
-0.004427538253607048 0.008158307850828508 -0.005008105970605740 
-0.002441025609325563 0.003817135351002827 -0.003013470983664096 
-0.002441025609325563 0.003817135351002827 -0.003013470983664096 
-0.008913441664159411 0.01428967111783566 -0.01106472834300612 
-0.01577278476580158 0.02698840561725575 -0.01976833741565311 
-0.002441025609325563 0.003817135351002827 -0.003013470983664096 
-0.005580494884719003 0.01008205997587157 -0.007568072340456490 
-0.005580494884719003 0.01008205997587157 -0.007568072340456490 
-0.01255233339577658 0.002199096803390934 0.003150724641980017 
-0.02087235325643674 0.01416925267467648 -0.004265783617415980 
-0.005580494884719003 0.01008205997587157 -0.007568072340456490 
-0.005580494884719003 0.01008205997587157 -0.007568072340456490 
-0.005580494884719003 0.01008205997587157 -0.007568072340456490 
-0.008294414552528138 0.01854276171408223 -0.01375492169699053 
-0.01221569264374998 0.02512198458532381 -0.01906474449549707 
-0.01383749072724649 0.01330561871344536 -0.004864026073528966 
-0.008294414552528138 0.01854276171408223 -0.01375492169699053 
-0.008294414552528138 0.01854276171408223 -0.01375492169699053 
-0.008294414552528138 0.01854276171408223 -0.01375492169699053 
-0.008294414552528138 0.01854276171408223 -0.01375492169699053 
-0.008294414552528138 0.01854276171408223 -0.01375492169699053 
-0.01494343261431525 0.01078201207669617 -0.003285028848577108 
-0.05306436699264366 0.008046828295617012 0.01860463477947249 
-0.01931276303625890 0.002576209436653811 0.01052184168883233 
-0.002971492615357473 0.006059371179424779 -0.004243615249886610 
-0.01417668288041141 0.02782251345583457 -0.01795248942403103 
-0.01417668288041141 0.02782251345583457 -0.01795248942403103 
-0.01466394818183700 -0.0004660573675380269 0.006508637631822449 
-0.01466394818183700 -0.0004660573675380269 0.006508637631822449 
-0.003436770109734949 0.007373582995936216 -0.006205330973223559 
-0.01104072365838673 9.486027420190567e-05 0.005305457281279756 
-0.01937397518779651 0.03179703988876664 -0.02488779876017991 
-0.006472416054833847 0.01047253576683284 -0.008051257359342024 
-0.006472416054833847 0.01047253576683284 -0.008051257359342024 
-0.006472416054833847 0.01047253576683284 -0.008051257359342024 
-0.02011184670773837 0.03423802595583831 -0.02401356910664891 
-0.006472416054833847 0.01047253576683284 -0.008051257359342024 
-0.006472416054833847 0.01047253576683284 -0.008051257359342024 
-0.01095758656306997 0.004955662126538956 0.0007828469007984897 
-0.006472416054833847 0.01047253576683284 -0.008051257359342024 
-0.006472416054833847 0.01047253576683284 -0.008051257359342024 
-0.009182574077651544 0.01632658138058990 -0.01225217888987494 
-0.03702701753767756 0.07273571565401159 -0.05745998218398452 
-0.009182574077651544 0.01632658138058990 -0.01225217888987494 
-0.009182574077651544 0.01632658138058990 -0.01225217888987494 
-0.009182574077651544 0.01632658138058990 -0.01225217888987494 
-0.009182574077651544 0.01632658138058990 -0.01225217888987494 
-0.008549992310231316 0.02193202024057282 -0.01765860366299202 
-0.005631819671756556 0.01081600401728847 -0.007213333376147456 
-0.005631819671756556 0.01081600401728847 -0.007213333376147456 
-0.02592531983689670 0.05026416550461568 -0.03770473542736596 
-0.01731280495781347 0.04024444182274728 -0.03125223791241451 
-0.005631819671756556 0.01081600401728847 -0.007213333376147456 
-0.006405489335661738 0.003259609473766092 -0.0007155499146835372 
-0.006405489335661738 0.003259609473766092 -0.0007155499146835372 
-0.006447713168419015 0.003926696362738995 -0.0008780088144406295 
-0.01266423858907093 0.02842040954163100 -0.02337638829353990 
-0.004541969164249248 0.01559828568973737 -0.01428275076535256 
-0.1656622745446588 -0.1632176427534647 0.2495375444764338 
-0.06810459228683172 -0.04028904749102569 0.07352511030421563 
-0.01131256666692656 0.02900114931516793 -0.02217017726495016 
-0.001463937024911626 0.009426745657149797 -0.009136376349975870 
-0.001463937024911626 0.009426745657149797 -0.009136376349975870 
-0.01534798170218682 0.03250995672713511 -0.02694595299490974 
-0.01430380706274258 -0.005777167884559923 0.01309056052855620 
-0.01031243852636208 -0.001848432803940929 0.007140290916454661 
-0.01659490604228526 -0.006360089843890238 0.01658068563526452 
-0.001393636068925273 0.008330044807464050 -0.008185380286483199 
-0.02984839212839911 0.006350983403636941 0.008914253727625193 
-0.007403670008112884 0.0007437790237305303 0.003641143248332997 
-0.01547051359227064 0.01921569496706775 -0.01204607056033591 
-0.002918172638474759 0.01111601622328435 -0.01044527028684457 
-0.02380514248641462 -0.002516576927009174 0.01448417667700827 
-0.002918172638474759 0.01111601622328435 -0.01044527028684457 
-0.01701558696841372 -0.003979442943366948 0.01379098440145844 
-0.02423285317082780 -0.01110563757710150 0.02255654193670633 
-0.002918172638474759 0.01111601622328435 -0.01044527028684457 
-0.007427255657353881 0.01907464226319146 -0.01559956406400043 
-0.002918172638474759 0.01111601622328435 -0.01044527028684457 
-0.002918172638474759 0.01111601622328435 -0.01044527028684457 
-0.01769205740841977 0.03357617932117589 -0.02630267537611577 
-0.005434568797732868 0.008665383911834808 -0.005363621142633236 
-0.005434568797732868 0.008665383911834808 -0.005363621142633236 
-0.009148482531889159 0.01667705757440638 -0.01081739137380255 
-0.02073715772699302 -0.01289080029463158 0.02501726942032066 
-0.005434568797732868 0.008665383911834808 -0.005363621142633236 
-0.005209190284949692 0.007999262163234011 -0.004818013946430411 
-0.005209190284949692 0.007999262163234011 -0.004818013946430411 
-0.005209190284949692 0.007999262163234011 -0.004818013946430411 
-0.005209190284949692 0.007999262163234011 -0.004818013946430411 
-0.01959336862393310 0.03564195396966826 -0.02586372040060074 
-0.003883984040894673 0.008689664045279946 -0.006469414679880858 
-0.003883984040894673 0.008689664045279946 -0.006469414679880858 
-0.003883984040894673 0.008689664045279946 -0.006469414679880858 
-0.003883984040894673 0.008689664045279946 -0.006469414679880858 
-0.008423767763049516 0.01531229769045258 -0.01058149589915006 
-0.003713913734156291 0.008011673662571576 -0.005453770231169317 
-0.003713913734156291 0.008011673662571576 -0.005453770231169317 
-0.003713913734156291 0.008011673662571576 -0.005453770231169317 
-0.003713913734156291 0.008011673662571576 -0.005453770231169317 
-0.002928670697850462 0.005639928625150834 -0.004409241590821176 
-0.002928670697850462 0.005639928625150834 -0.004409241590821176 
-0.002928670697850462 0.005639928625150834 -0.004409241590821176 
-0.01225078991429321 0.02185192378417700 -0.01521010091456707 
-0.01225078991429321 0.02185192378417700 -0.01521010091456707 
-0.008704602908177064 0.01449669168986485 -0.01138777800591846 
-0.01957302203700315 0.003681379916634418 0.006477764745532835 
-0.003921278091221840 0.006579222871241582 -0.005309822798506535 
-0.003921278091221840 0.006579222871241582 -0.005309822798506535 
-0.003921278091221840 0.006579222871241582 -0.005309822798506535 
-0.003921278091221840 0.006579222871241582 -0.005309822798506535 
-0.003921278091221840 0.006579222871241582 -0.005309822798506535 
-0.003921278091221840 0.006579222871241582 -0.005309822798506535 
-0.003921278091221840 0.006579222871241582 -0.005309822798506535 
-0.004783324816955223 0.007917468818623269 -0.006077955207411926 
-0.004783324816955223 0.007917468818623269 -0.006077955207411926 
-0.004783324816955223 0.007917468818623269 -0.006077955207411926 
-0.004783324816955223 0.007917468818623269 -0.006077955207411926 
-0.004783324816955223 0.007917468818623269 -0.006077955207411926 
-0.009292407835834345 0.01587609485853038 -0.01123224898456778 
-0.002925420151167761 0.005612332776801881 -0.003185536749392005 
-0.002925420151167761 0.005612332776801881 -0.003185536749392005 
-0.004196956224785598 0.006827812432068951 -0.005448763394919427 
-0.004196956224785598 0.006827812432068951 -0.005448763394919427 
-0.004196956224785598 0.006827812432068951 -0.005448763394919427 
-0.004196956224785598 0.006827812432068951 -0.005448763394919427 
-0.004196956224785598 0.006827812432068951 -0.005448763394919427 
-0.004196956224785598 0.006827812432068951 -0.005448763394919427 
-0.004196956224785598 0.006827812432068951 -0.005448763394919427 
-0.003568836085729281 0.006889201530530094 -0.004403880464170567 
-0.003568836085729281 0.006889201530530094 -0.004403880464170567 
-0.007854034075411815 0.0008825243554320048 0.002154341820496108 
-0.003542203157315772 0.005838068104327645 -0.004750631563963912 
-0.003542203157315772 0.005838068104327645 -0.004750631563963912 
-0.003542203157315772 0.005838068104327645 -0.004750631563963912 
-0.003542203157315772 0.005838068104327645 -0.004750631563963912 
-0.003542203157315772 0.005838068104327645 -0.004750631563963912 
-0.02322693719362472 -0.01250791886937053 0.02577826892635570 
-0.004007905630386057 0.008272293845101714 -0.005149927209754220 
-0.004007905630386057 0.008272293845101714 -0.005149927209754220 
-0.008081307977495188 0.01656393572293176 -0.01111309715697876 
-0.004007905630386057 0.008272293845101714 -0.005149927209754220 
-0.004007905630386057 0.008272293845101714 -0.005149927209754220 
-0.004007905630386057 0.008272293845101714 -0.005149927209754220 
-0.004539783722154843 0.006622633645172639 -0.004112081219269200 
-0.004539783722154843 0.006622633645172639 -0.004112081219269200 
-0.004539783722154843 0.006622633645172639 -0.004112081219269200 
-0.004539783722154843 0.006622633645172639 -0.004112081219269200 
-0.004539783722154843 0.006622633645172639 -0.004112081219269200 
-0.004803602498884323 0.008394001502256920 -0.006624689369210145 
-0.004509083018879121 0.007958626039907112 -0.005154293777155854 
-0.004509083018879121 0.007958626039907112 -0.005154293777155854 
-0.004509083018879121 0.007958626039907112 -0.005154293777155854 
-0.004509083018879121 0.007958626039907112 -0.005154293777155854 
-0.01210814972067400 0.003631062978741759 0.001450544484131422 
-0.006396699065274985 0.01059966238222428 -0.007615322574353885 
-0.006396699065274985 0.01059966238222428 -0.007615322574353885 
-0.003078032139337621 0.006171540032587573 -0.005146374415376688 
-0.003078032139337621 0.006171540032587573 -0.005146374415376688 
-0.003078032139337621 0.006171540032587573 -0.005146374415376688 
-0.02437135591260662 0.005560240762098184 0.008322099276321180 
-0.005907179285441399 0.01288025270855128 -0.01057541810554927 
-0.01178420698600112 -0.005646739725868682 0.01139093175488356 
-0.004073402347109132 0.008291641877830042 -0.005963169947224540 
-0.007603953548651782 -0.007278722721734311 0.01151078825450332 
-0.04001988854594320 -0.04474003554978288 0.06377078820475520 
-0.01343275009538576 -0.01382508986067778 0.02084306169715861 
-0.007603953548651782 -0.007278722721734311 0.01151078825450332 
-0.007603953548651782 -0.007278722721734311 0.01151078825450332 
-0.005281307357336548 -0.006296501197649146 0.008230018071509861 
-0.03962598393416308 -0.04647569776460309 0.06333143385277130 
-0.01089622081674185 -0.01280293743572896 0.01705583986005456 
-0.009979963900274868 -0.01081898191748149 0.01577602907536203 
-0.005281307357336548 -0.006296501197649146 0.008230018071509861 
-0.005281307357336548 -0.006296501197649146 0.008230018071509861 
-0.01022285966808666 -0.01246363738103285 0.01665084450680219 
-0.005281307357336548 -0.006296501197649146 0.008230018071509861 
-0.04560148696677539 -0.05242484735638373 0.07378931359770020 
-0.006649018061787111 -0.007760749637386050 0.01046989284841342 
-0.006649018061787111 -0.007760749637386050 0.01046989284841342 
-0.006649018061787111 -0.007760749637386050 0.01046989284841342 
-0.006649018061787111 -0.007760749637386050 0.01046989284841342 
-0.006649018061787111 -0.007760749637386050 0.01046989284841342 
-0.01390607896845877 -0.01461500594458239 0.02266159813723316 
-0.03926466922718522 -0.03385304756522573 0.05799468611101194 
-0.01115703909690973 -0.01072935938657550 0.01765545868189442 
-0.03140353724943440 -0.03209980914810306 0.05091001105621570 
-0.004223646282013062 -0.004592475930339247 0.006857219597845742 
-0.01494190630226093 -0.01500933639387186 0.02351417625472533 
-0.01277725967994036 -0.01526965590613708 0.02093386562301494 
-0.01528400524930924 -0.01610178439747807 0.02386089246870730 
-0.01528400524930924 -0.01610178439747807 0.02386089246870730 
-0.005115279779179745 -0.006110277546004564 0.007952055719638775 
-0.005115279779179745 -0.006110277546004564 0.007952055719638775 
-0.005115279779179745 -0.006110277546004564 0.007952055719638775 
-0.005115279779179745 -0.006110277546004564 0.007952055719638775 
-0.006419319287508196 -0.007315370736715867 0.01076059663276808 
-0.006419319287508196 -0.007315370736715867 0.01076059663276808 
-0.01327097672597110 -0.01436835356210840 0.02238643077961371 
-0.006419319287508196 -0.007315370736715867 0.01076059663276808 
-0.006419319287508196 -0.007315370736715867 0.01076059663276808 
-0.01756271414379379 -0.01896791016930622 0.02812096955344206 
-0.006419319287508196 -0.007315370736715867 0.01076059663276808 
-0.01791106279834411 -0.02001752302702942 0.02919167248179797 
-0.006419319287508196 -0.007315370736715867 0.01076059663276808 
-0.006793086967897592 -0.008179671570481209 0.01088506484517771 
-0.004485170508236122 -0.005516873640293879 0.008834104260140514 
-0.01446746721425180 -0.01639648415686462 0.02608608427361895 
-0.02764469503102917 -0.02899171995373769 0.04407627826485069 
-0.004485170508236122 -0.005516873640293879 0.008834104260140514 
-0.004802227251392505 -0.005128203142420801 0.007829869923435730 
-0.004802227251392505 -0.005128203142420801 0.007829869923435730 
-0.004802227251392505 -0.005128203142420801 0.007829869923435730 
-0.004802227251392505 -0.005128203142420801 0.007829869923435730 
-0.006971838511057573 -0.007882963172480637 0.01071879698243651 
-0.006971838511057573 -0.007882963172480637 0.01071879698243651 
-0.006971838511057573 -0.007882963172480637 0.01071879698243651 
-0.006971838511057573 -0.007882963172480637 0.01071879698243651 
-0.006971838511057573 -0.007882963172480637 0.01071879698243651 
-0.006971838511057573 -0.007882963172480637 0.01071879698243651 
-0.004533680938007170 -0.004790067984401416 0.007265603648423238 
-0.01094011004015899 -0.01025138469903839 0.01701758692084280 
-0.01958977054399275 -0.02323756483527031 0.03386501832525814 
-0.004533680938007170 -0.004790067984401416 0.007265603648423238 
-0.004533680938007170 -0.004790067984401416 0.007265603648423238 
-0.008468707251936592 -0.009468496301395594 0.01433290731582586 
-0.004533680938007170 -0.004790067984401416 0.007265603648423238 
-0.009985843466199998 -0.01010647989175652 0.01558383053689205 
-0.009985843466199998 -0.01010647989175652 0.01558383053689205 
-0.004698656542938321 -0.004522480719832342 0.007546011003852174 
-0.004698656542938321 -0.004522480719832342 0.007546011003852174 
-0.004698656542938321 -0.004522480719832342 0.007546011003852174 
-0.004698656542938321 -0.004522480719832342 0.007546011003852174 
-0.004698656542938321 -0.004522480719832342 0.007546011003852174 
-0.005663702777457496 -0.006109985434345758 0.01013929690219489 
-0.005663702777457496 -0.006109985434345758 0.01013929690219489 
-0.01114339485628559 -0.01165253943259035 0.01736037292067397 
-0.006201842545535482 -0.005485403249206652 0.008939546485381639 
-0.006201842545535482 -0.005485403249206652 0.008939546485381639 
-0.005287186923261677 -0.005583999171924177 0.008037819533039870 
-0.009222213237191100 -0.01026242748891836 0.01510512320044249 
-0.004983776143507389 -0.005500049294410800 0.008258367535535239 
-0.004983776143507389 -0.005500049294410800 0.008258367535535239 
-0.004983776143507389 -0.005500049294410800 0.008258367535535239 
-0.004983776143507389 -0.005500049294410800 0.008258367535535239 
-0.008278855659867527 -0.005327823283442007 0.01134065634117116 
-0.008278855659867527 -0.005327823283442007 0.01134065634117116 
-0.008278855659867527 -0.005327823283442007 0.01134065634117116 
-0.008278855659867527 -0.005327823283442007 0.01134065634117116 
-0.008278855659867527 -0.005327823283442007 0.01134065634117116 
-0.008278855659867527 -0.005327823283442007 0.01134065634117116 
-0.008278855659867527 -0.005327823283442007 0.01134065634117116 
-0.008278855659867527 -0.005327823283442007 0.01134065634117116 
-0.008278855659867527 -0.005327823283442007 0.01134065634117116 
-0.004311830918096042 -0.004955543748895640 0.006904973384460020 
-0.004311830918096042 -0.004955543748895640 0.006904973384460020 
-0.004311830918096042 -0.004955543748895640 0.006904973384460020 
-0.01585715794228954 -0.02010921251432871 0.02746513191933774 
-0.008071360695795690 -0.01175108957348773 0.01499598232443982 
-0.003935026313929422 -0.004678428316994179 0.007067303667402621 
-0.005387551641085417 -0.005227608713323012 0.008665871301794078 
-0.005387551641085417 -0.005227608713323012 0.008665871301794078 
-0.005387551641085417 -0.005227608713323012 0.008665871301794078 
-0.005387551641085417 -0.005227608713323012 0.008665871301794078 
-0.005387551641085417 -0.005227608713323012 0.008665871301794078 
-0.005387551641085417 -0.005227608713323012 0.008665871301794078 
-0.005387551641085417 -0.005227608713323012 0.008665871301794078 
-0.02210179279434891 -0.02782724118689658 0.03780680675871476 
-0.01144878982819978 -0.01469150560003035 0.02032011326493712 
-0.006282729319367922 -0.008913426361598413 0.01242689347657539 
-0.006282729319367922 -0.008913426361598413 0.01242689347657539 
-0.006282729319367922 -0.008913426361598413 0.01242689347657539 
-0.006282729319367922 -0.008913426361598413 0.01242689347657539 
-0.006282729319367922 -0.008913426361598413 0.01242689347657539 
-0.01679306075532379 -0.01994452801905124 0.02718412984242625 
-0.02458004874669134 -0.02525938079965848 0.03744366471225769 
-0.02865640521959177 -0.03066576700345648 0.04416899101027208 
-0.01504062068149025 -0.01880454708390577 0.02457718269778534 
-0.02494958136346696 -0.03144130102798225 0.04169288703474109 
-0.005711450655399016 -0.006968599403482526 0.009065867058485307 
-0.01524343909004921 -0.02069295982247853 0.03068094346825850 
-0.01090541426339383 -0.01599097280681944 0.02334974572321670 
-0.002961432031799385 -0.005451523265693716 0.007516770175063203 
-0.002961432031799385 -0.005451523265693716 0.007516770175063203 
-0.002961432031799385 -0.005451523265693716 0.007516770175063203 
-0.002961432031799385 -0.005451523265693716 0.007516770175063203 
-0.004941552310750112 -0.006167136183383703 0.008420826435292331 
-0.01409741432993897 -0.01509545916665130 0.02423625468830301 
-0.005833876368794479 -0.008185069361950542 0.01149429147639241 
-0.005833876368794479 -0.008185069361950542 0.01149429147639241 
-0.01198330727307155 -0.01402627748143493 0.02051898687336837 
-0.009347272974199024 -0.01149434709651987 0.01726839575261601 
-0.004614692492784568 -0.005335684922954147 0.008282878721807170 
-0.006851657438462905 -0.007052982825392533 0.01162583414684563 
-0.01378505025335957 -0.01318986628162879 0.02242407323089430 
-0.01378505025335957 -0.01318986628162879 0.02242407323089430 
-0.006851657438462905 -0.007052982825392533 0.01162583414684563 
-0.005828796546733979 -0.006546367138943464 0.009332273442655298 
-0.005828796546733979 -0.006546367138943464 0.009332273442655298 
-0.01125324174106229 -0.01294566431939866 0.01791593738059887 
-0.004534689101656109 -0.007125884204574092 0.009119892826237994 
-0.003899683532782938 -0.004629188223295991 0.006824956426727203 
-0.01083307634767961 -0.01076607167953225 0.01762319551077588 
-0.003899683532782938 -0.004629188223295991 0.006824956426727203 
-0.003899683532782938 -0.004629188223295991 0.006824956426727203 
-0.004338024826655379 -0.004701987015659084 0.007331197745041796 
-0.004338024826655379 -0.004701987015659084 0.007331197745041796 
-0.004338024826655379 -0.004701987015659084 0.007331197745041796 
-0.003759529777699648 -0.006795545824592093 0.008091008939979799 
-0.003759529777699648 -0.006795545824592093 0.008091008939979799 
-0.003759529777699648 -0.006795545824592093 0.008091008939979799 
-0.003329289738809874 -0.005203764618171584 0.007550096826346329 
-0.003329289738809874 -0.005203764618171584 0.007550096826346329 
-0.01186334446426798 -0.01072123898440524 0.01698486116784583 
-0.007786987991367544 -0.005314852780607246 0.01025953486983144 
-0.007786987991367544 -0.005314852780607246 0.01025953486983144 
-0.007786987991367544 -0.005314852780607246 0.01025953486983144 
-0.007786987991367544 -0.005314852780607246 0.01025953486983144 
-0.01209246729516194 -0.01195922631146749 0.01789668902310840 
-0.006149430904277068 -0.005841208119484390 0.009024695396975955 
-0.006149430904277068 -0.005841208119484390 0.009024695396975955 
-0.006149430904277068 -0.005841208119484390 0.009024695396975955 
-0.006149430904277068 -0.005841208119484390 0.009024695396975955 
-0.005424445194328307 -0.006399297180455197 0.008583663937943570 
-0.005424445194328307 -0.006399297180455197 0.008583663937943570 
-0.005543076174718350 -0.005237143000636866 0.008890895623461565 
-0.005543076174718350 -0.005237143000636866 0.008890895623461565 
-0.005543076174718350 -0.005237143000636866 0.008890895623461565 
-0.005543076174718350 -0.005237143000636866 0.008890895623461565 
-0.005543076174718350 -0.005237143000636866 0.008890895623461565 
-0.005943036390884873 -0.006118018191983103 0.008871993626132450 
-0.005943036390884873 -0.006118018191983103 0.008871993626132450 
-0.005943036390884873 -0.006118018191983103 0.008871993626132450 
-0.004439220531297333 -0.005642467515933876 0.008361084390016866 
-0.004439220531297333 -0.005642467515933876 0.008361084390016866 
-0.004732580481414456 -0.006158662173565719 0.008985517030808840 
-0.004732580481414456 -0.006158662173565719 0.008985517030808840 
-0.004501054777600983 -0.005697015400451358 0.008304125067628428 
-0.003811121106109046 -0.009309193380402732 0.01052914527538090 
-0.006973906724185031 -0.008224614434271070 0.01150069026929600 
-0.006973906724185031 -0.008224614434271070 0.01150069026929600 
-0.006973906724185031 -0.008224614434271070 0.01150069026929600 
-0.006973906724185031 -0.008224614434271070 0.01150069026929600 
-0.006973906724185031 -0.008224614434271070 0.01150069026929600 
-0.006973906724185031 -0.008224614434271070 0.01150069026929600 
-0.006933392814896668 -0.006136883456236255 0.01079823908404868 
-0.006933392814896668 -0.006136883456236255 0.01079823908404868 
-0.006933392814896668 -0.006136883456236255 0.01079823908404868 
-0.006406429102151823 -0.005461316714636972 0.009751983272419561 
-0.006406429102151823 -0.005461316714636972 0.009751983272419561 
-0.004076356472900435 -0.005406386203797992 0.006725326298014394 
-0.1511022865946921 -0.1021410395488785 -0.04050028247486245 
