solver_type L2R_L2LOSS_SVC
nr_class 3
label 0 1 2
nr_feature 585
bias 1.000000000000000
w
-0.006173515042873083 -0.007831607441601409 -0.009915299285791409 
-0.1492895811890563 -0.09984144923492919 -0.03758929579252099 
0.07985152079861736 -0.08852460625995019 -0.03997172892178937 
0.01757373447447395 -0.01754933253529031 -0.004178281948747542 
-0.006699255572161307 -0.001541860471952158 0.002666612100353313 
-0.003276435720553528 -0.008933133431749054 0.008849572524361048 
0.1300018262508054 -0.06175740602175924 -0.08670306277997955 
-0.01934651524791482 -0.08609733535265218 0.008246128957477243 
0.2648126899176896 -0.1409246196424714 -0.1800864026176093 
0.2912898941850118 -0.1549755955006602 -0.1991891573684248 
0.04726515902981724 -0.03202984736571093 -0.02439967476475824 
0.009807618335731355 -0.004479711585498762 -0.006411392412432534 
0.009807618335731355 -0.004479711585498762 -0.006411392412432534 
-0.02956988419915406 0.06716003753554946 -0.08189445093245963 
0.09710762452363533 -0.04607876023595785 -0.06775417323107673 
0.05720699798055748 -0.07277974735198932 -0.01308971779271525 
0.006963395088012914 -0.04535617968407479 0.002256183008990829 
0.03679356922320839 -0.02702144332169421 -0.02262588106032003 
0.005173239093977722 -0.001823017261803080 -0.004097159641961173 
0.003381338547532063 0.01008747596800462 -0.01846178746017578 
0.005173239093977722 -0.001823017261803080 -0.004097159641961173 
-0.004883269711215368 -0.01230719282656964 0.01203971415610231 
-0.0002816087877070671 -0.02505104268859379 0.009000301159606186 
0.006023215964286434 -0.002467531041792200 -0.004708157779293297 
0.006023215964286434 -0.002467531041792200 -0.004708157779293297 
0.006023215964286434 -0.002467531041792200 -0.004708157779293297 
0.006023215964286434 -0.002467531041792200 -0.004708157779293297 
0.006023215964286434 -0.002467531041792200 -0.004708157779293297 
0.01522576663560634 -0.007520009730200787 -0.01171994003313969 
0.006023215964286434 -0.002467531041792200 -0.004708157779293297 
0.006023215964286434 -0.002467531041792200 -0.004708157779293297 
0.01842762827171598 -0.009613840267613295 -0.01261161362458119 
0.008177746505274603 -0.02162803185514287 0.004892316066311219 
0.04408467499785886 -0.03021635611021313 -0.03234913034298484 
0.006648150868799376 -0.003395530464744613 -0.003861782045163976 
0.08864023901816537 -0.04862104771333302 -0.06955765126798039 
0.02034929501251988 -0.01120399338455428 -0.01478077388308861 
0.01320987647648803 -0.01645590438122455 -0.005150246417710286 
0.02478755934185054 -0.02168737024237316 -0.01363117000301159 
0.006055849382707556 0.004886206603351652 -0.01863667706373759 
0.01124814723420827 -0.002054071639485142 -0.01492053364741600 
0.003643508887455838 -0.001947619717763126 -0.002922381884625968 
-0.06614431676069040 0.08327091873644420 -0.06075116236846843 
0.003491023256060005 0.003793379707792697 -0.009933743433072701 
0.008299146476601493 -0.004683682325254478 -0.004777445916359749 
0.008299146476601493 -0.004683682325254478 -0.004777445916359749 
0.02263605838940063 -0.01387130915682275 -0.01376158439271257 
-0.01015796535231475 0.007465760987062943 -0.01077112680538556 
0.002733642463899724 0.002729515124196079 -0.008003968370594612 
0.005329380405686883 -0.003149708397849379 -0.003824530512035761 
0.005329380405686883 -0.003149708397849379 -0.003824530512035761 
0.005329380405686883 -0.003149708397849379 -0.003824530512035761 
0.008711226570004107 -0.01248791670200687 -9.248518932342140e-05 
0.004903052384278036 0.001099741496938314 -0.008670044236834585 
-0.009328542087756025 0.02308256037572229 -0.02291261896964662 
-0.0002003726491809265 0.006379718460332299 -0.01212784131164285 
0.02481380773194751 -0.01462048808718388 -0.01586803904730614 
0.05432696881252810 -0.02372547428408211 -0.04506638100640013 
0.02291231141225286 -0.008964045094300254 -0.03677331523685402 
0.004211336504202154 -0.001943485357882006 -0.003168157253142249 
0.004211336504202154 -0.001943485357882006 -0.003168157253142249 
-0.003151165634239855 0.01342903123792763 -0.01424380144465004 
0.008861460979602520 -0.005105062333761762 -0.006121569961959802 
0.04694215613761696 -0.01741068319547840 -0.04592959358441757 
0.03514372761905654 -0.02050685250581364 -0.03372826752947518 
0.009099445622351002 -0.004071630717240262 -0.006446456427917064 
0.009099445622351002 -0.004071630717240262 -0.006446456427917064 
0.05058221214933523 -0.02799529304031143 -0.03291981067505252 
-0.01027520321718686 -0.02099159513198086 0.02233103184853209 
0.04741682152956679 -0.02642038853439836 -0.02955733244937560 
0.009099445622351002 -0.004071630717240262 -0.006446456427917064 
-0.002483940384006956 0.03892784030289909 -0.04833757131200054 
-0.003239548144489598 0.02377034621346073 -0.03236304866619904 
0.005751674541198438 -0.003112483764744043 -0.002952434659044505 
0.005751674541198438 -0.003112483764744043 -0.002952434659044505 
-0.002409836225437859 -0.02472187706709591 0.01724247441052710 
0.008269356651885785 -0.0002387358980552926 -0.01263724683369630 
0.008269356651885785 -0.0002387358980552926 -0.01263724683369630 
0.02092559049994555 -0.01165038691490058 -0.01524642913601267 
0.006480829399259314 -0.004029060153192254 -0.004779806632823957 
0.01271534540953863 -0.007867091241884455 -0.007934200401012436 
-0.009751778440467000 -0.02161087649357629 0.02210244763054772 
0.006511039876665722 -0.004453432319654701 -0.004313959705779205 
0.006511039876665722 -0.004453432319654701 -0.004313959705779205 
0.04295880976724172 -0.02472147838678008 -0.02804227303117923 
0.006375700977917992 -0.003493430622461684 -0.004924152859864256 
0.0005657184830380819 -0.01001592465852733 0.004438345106879051 
0.008532097608822925 -0.01045610500505920 -0.006933234293826488 
0.008175207973651332 -0.004926866452539945 -0.005644516069052027 
-0.007214621272487485 -0.007954790194230137 0.006773443974785852 
-0.0004225041461608157 -0.008892036736071685 0.005186727351604708 
0.005500866028420093 -0.002798957338840032 -0.003716833089677829 
-0.01031650387551409 0.01854810063213599 -0.02165932518596284 
0.01548181846021879 -0.008880764898998311 -0.009310968571387308 
0.003711710663819244 -0.002528086712852320 -0.001728132943345207 
-0.0003508794619035273 0.005777302702647136 -0.007673852658267433 
0.009933630804162206 -0.01610901351489648 0.0006114914702793506 
0.003711710663819244 -0.002528086712852320 -0.001728132943345207 
0.003711710663819244 -0.002528086712852320 -0.001728132943345207 
0.003711710663819244 -0.002528086712852320 -0.001728132943345207 
0.003003146374877410 -0.0009968788867173230 -0.002376666220883617 
0.005743227942786374 -0.01306812582393513 0.002557367083108816 
-0.001439255716436968 -0.01651541741999918 0.01081691889775004 
0.01403423732031809 -0.006795013184045300 -0.009244210833572023 
0.003003146374877410 -0.0009968788867173230 -0.002376666220883617 
0.002678757982305663 -0.02603049766694884 0.01322676615962928 
0.006514350404577522 -0.002621862745336350 -0.005090424524871539 
0.006514350404577522 -0.002621862745336350 -0.005090424524871539 
0.006090198216926547 -0.003341661013752635 -0.003470953858907688 
0.006090198216926547 -0.003341661013752635 -0.003470953858907688 
0.006090198216926547 -0.003341661013752635 -0.003470953858907688 
0.01856670500108976 -0.01049599860129514 -0.01175137894101412 
0.01256386529537478 -0.006808202197875805 -0.007238982225632321 
0.006234516010279317 -0.003838031088692201 -0.003154393768188479 
-0.006504137367448553 0.01840336132922503 -0.01679247409244849 
0.01296729950051422 -0.007444652232518024 -0.008561565027929811 
0.01296729950051422 -0.007444652232518024 -0.008561565027929811 
0.04099643926361023 -0.02172384573738739 -0.02986297939816534 
0.007591810758803613 -0.01265696798914630 0.0001236737960116800 
-0.03403110967779224 -0.06405314840090315 0.07608743263083216 
0.005166232965489422 -0.01814828884950395 0.007844159357394614 
0.01296729950051422 -0.007444652232518024 -0.008561565027929811 
0.01433691191279914 -0.009187626831568273 -0.008984138476352823 
0.01433691191279914 -0.009187626831568273 -0.008984138476352823 
0.01433691191279914 -0.009187626831568273 -0.008984138476352823 
0.01000948595080999 -0.01387617498482409 -0.001635929034185803 
0.007289877428285788 -0.003661457376747091 -0.005055995595282857 
0.007289877428285788 -0.003661457376747091 -0.005055995595282857 
0.01384225736404868 -0.007176163492965623 -0.008510556898315624 
0.007289877428285788 -0.003661457376747091 -0.005055995595282857 
0.006029728012401077 -0.002683872165731684 -0.004591709062487842 
-0.01032410960206643 0.02395742864962163 -0.02178341013582898 
0.0005904607868118608 -0.009386289658860696 0.005019946029601808 
0.003691105284460792 0.01473118761813051 -0.02345580796794924 
0.01123713187337718 -0.005542915054799449 -0.007969079306410990 
0.006923699709115958 -0.004207823909413560 -0.005195128835232497 
0.006923699709115958 -0.004207823909413560 -0.005195128835232497 
0.02073097642296730 -0.01179973714865808 -0.01328504062899888 
0.006675361033460276 -0.004081136054056984 -0.004983869581349871 
0.006652737766231115 -0.004033825461077052 -0.004951021186243390 
0.0004678964738763601 -0.009497647067444570 0.004015861847494994 
0.009202550671319910 -0.005052478688408587 -0.007011782253846396 
0.007503235453744130 -0.004203894978382567 -0.004846609744616244 
0.008400351008118704 -0.003306361375667138 -0.006530706891165321 
0.008874849467745975 -0.01888451807194131 0.002845525975503044 
0.006336925766716343 -0.003663401814946930 -0.004768880386603254 
0.006336925766716343 -0.003663401814946930 -0.004768880386603254 
-0.004877504499747869 -0.01655981756078772 0.01320936168539434 
0.006795162765778494 -0.004209368417723306 -0.004994046963787647 
0.006795162765778494 -0.004209368417723306 -0.004994046963787647 
-0.009549771187982874 0.004656156250336548 -0.004118753488619042 
0.01032326959577375 -0.004818867752127487 -0.006610098543123317 
0.01032326959577375 -0.004818867752127487 -0.006610098543123317 
0.005929548004614265 -0.003219056294893715 -0.003664060627867392 
0.005929548004614265 -0.003219056294893715 -0.003664060627867392 
0.006458246941681701 -0.003015018931257092 -0.004830019197630559 
0.006458246941681701 -0.003015018931257092 -0.004830019197630559 
0.006458246941681701 -0.003015018931257092 -0.004830019197630559 
0.004940892728514131 -0.002456473283575342 -0.003396590753780719 
-0.0004635550430701710 -0.008830394993350482 0.005219153351473570 
0.004940892728514131 -0.002456473283575342 -0.003396590753780719 
0.004940892728514131 -0.002456473283575342 -0.003396590753780719 
0.003481838572433999 -0.001509679864826348 -0.002594408890367875 
0.006269553127034898 -0.002694460309168380 -0.004822106434136692 
-0.03637827644477720 0.06337797768292132 -0.04356223076339111 
-0.03219868313918448 0.05652813180090169 -0.03814134573372524 
-0.1775885761610288 0.3433681968320723 -0.2500112129522032 
-0.003654290063548714 0.006262312771021078 -0.004509560622886883 
-0.03051281304706006 0.05622925966671393 -0.03884083331063764 
-0.02152090904162468 -0.01208222817409094 0.02597977774050737 
-0.003654290063548714 0.006262312771021078 -0.004509560622886883 
-0.003654290063548714 0.006262312771021078 -0.004509560622886883 
-0.003654290063548714 0.006262312771021078 -0.004509560622886883 
-0.006201566196018383 0.01478322866755925 -0.01103267492758300 
-0.02998237519693611 -0.01858366346374404 0.03666263708867188 
-0.01846233436151215 0.03831775653458199 -0.02915452640862163 
-0.01080592363012011 0.009460652973117350 -0.002733156375677478 
-0.006201566196018383 0.01478322866755925 -0.01103267492758300 
-0.01563488483936390 0.01362733249040489 -0.003563648074429156 
-0.02438710497393650 -0.003999945424203202 0.01981471147067626 
-0.03221741895613958 0.007233690836042421 0.01382971884749087 
-0.01591351109682867 0.01517662401968838 -0.006792143952973115 
-0.006201566196018383 0.01478322866755925 -0.01103267492758300 
-0.004295201116204072 0.007199245345729209 -0.005304639521445143 
-0.004295201116204072 0.007199245345729209 -0.005304639521445143 
-0.004295201116204072 0.007199245345729209 -0.005304639521445143 
-0.009903698296045043 0.01860733951947127 -0.01284078348229265 
-0.004295201116204072 0.007199245345729209 -0.005304639521445143 
-0.004295201116204072 0.007199245345729209 -0.005304639521445143 
-0.03244729892325973 0.05930682422276085 -0.04094088734966737 
-0.01588829740016898 0.006844162246190771 0.001156192925765806 
-0.008147564972787751 0.01299968874238641 -0.008963007643398996 
-0.01568954332851702 0.02722595042933150 -0.01780318716082089 
-0.02844250771577583 0.05251354702157469 -0.03528813606635698 
-0.006193996315486794 0.01681697880942793 -0.01332912624631137 
-0.004808123220541488 0.008477062033047175 -0.005156297516712951 
-0.004808123220541488 0.008477062033047175 -0.005156297516712951 
-0.004808123220541488 0.008477062033047175 -0.005156297516712951 
-0.004808123220541488 0.008477062033047175 -0.005156297516712951 
-0.01439696145905316 0.003518111481648022 0.005669878780178436 
-0.009611969629609480 0.01510855943366497 -0.008711625493273293 
-0.005192297851500717 0.006940278242836794 -0.003716143416321588 
-0.01434332348863997 0.02330688022820742 -0.01591760400992019 
-0.04098192545290333 0.08167758026913709 -0.06260059124477818 
-0.03693213646485062 0.06267749505960600 -0.04662804041746392 
-0.04135180824295939 0.07084577625043416 -0.05162352249441563 
-0.005192297851500717 0.006940278242836794 -0.003716143416321588 
-0.005192297851500717 0.006940278242836794 -0.003716143416321588 
-0.005192297851500717 0.006940278242836794 -0.003716143416321588 
-0.005192297851500717 0.006940278242836794 -0.003716143416321588 
-0.005192297851500717 0.006940278242836794 -0.003716143416321588 
-0.01769698444857942 -0.002750999857061677 0.01359237306716256 
-0.004552072776643559 0.007753877006210046 -0.005380579338013935 
-0.01008347191513496 0.002531532004146472 0.003529074029814027 
-0.004552072776643559 0.007753877006210046 -0.005380579338013935 
-0.004552072776643559 0.007753877006210046 -0.005380579338013935 
-0.03773747484583522 0.01894155821782020 -0.0009288940957535186 
-0.004552072776643559 0.007753877006210046 -0.005380579338013935 
-0.004552072776643559 0.007753877006210046 -0.005380579338013935 
-0.004552072776643559 0.007753877006210046 -0.005380579338013935 
-0.02498217175758305 0.04676414998711671 -0.03109297414140876 
-0.01655817781741411 0.02972753381010488 -0.02232620392369925 
-0.01153960631162369 0.02378157415560629 -0.01643028164953006 
-0.01646538826076850 0.03283073003901880 -0.02179829045205809 
-0.009240954443599117 0.01805492101301415 -0.01315375243085360 
-0.01355868628735096 0.02421861925959395 -0.01668919562753955 
-0.01204571648265974 0.02466244884819063 -0.01680280837510639 
-0.02008511579607035 0.03990055156869027 -0.02733610946797276 
-0.01239355643137141 0.02224163361778165 -0.01385351392230589 
-0.004419671778108764 0.008168281190828174 -0.004995482076951705 
-0.004419671778108764 0.008168281190828174 -0.004995482076951705 
-0.02149497421194770 0.02951476612960075 -0.01716348468987305 
-0.004419671778108764 0.008168281190828174 -0.004995482076951705 
-0.004419671778108764 0.008168281190828174 -0.004995482076951705 
-0.004419671778108764 0.008168281190828174 -0.004995482076951705 
-0.002430902133569636 0.003830008546757587 -0.002997157132018867 
-0.002430902133569636 0.003830008546757587 -0.002997157132018867 
-0.008878377513608307 0.01433421649297862 -0.01100833833736969 
-0.01572004284102406 0.02705533847613864 -0.01968359499744011 
-0.002430902133569636 0.003830008546757587 -0.002997157132018867 
-0.005561610616844566 0.01010599588480501 -0.007537803808358233 
-0.005561610616844566 0.01010599588480501 -0.007537803808358233 
-0.01250799559350828 0.002255295250755310 0.003221829840491938 
-0.02080459106250055 0.01425523544656600 -0.004156820433842067 
-0.005561610616844566 0.01010599588480501 -0.007537803808358233 
-0.005561610616844566 0.01010599588480501 -0.007537803808358233 
-0.005561610616844566 0.01010599588480501 -0.007537803808358233 
-0.008272724485514143 0.01857025957914246 -0.01372004026813566 
-0.01217763620127547 0.02517024790935751 -0.01900353531871869 
-0.01380412362400555 0.01334791457707889 -0.004810386900307695 
-0.008272724485514143 0.01857025957914246 -0.01372004026813566 
-0.008272724485514143 0.01857025957914246 -0.01372004026813566 
-0.008272724485514143 0.01857025957914246 -0.01372004026813566 
-0.008272724485514143 0.01857025957914246 -0.01372004026813566 
-0.008272724485514143 0.01857025957914246 -0.01372004026813566 
-0.01489745441983245 0.01084030495206901 -0.003211160954064033 
-0.05290122803250085 0.008253745779378511 0.01886695050985666 
-0.01927436707913442 0.002624963990765629 0.01058339819421539 
-0.002964400484553651 0.006068381328943688 -0.004232303134854288 
-0.01415008885982937 0.02785632233707724 -0.01790985742256249 
-0.01415008885982937 0.02785632233707724 -0.01790985742256249 
-0.01461074077474931 -0.0003985695713743106 0.006594181736386912 
-0.01461074077474931 -0.0003985695713743106 0.006594181736386912 
-0.003422819851607780 0.007391272959796896 -0.006182960424007735 
-0.01100600787947257 0.0001388937747065738 0.005361171423108016 
-0.01929714948471200 0.03189453568996935 -0.02476434189620085 
-0.006447475380038671 0.01050420794622104 -0.008011181205350817 
-0.006447475380038671 0.01050420794622104 -0.008011181205350817 
-0.006447475380038671 0.01050420794622104 -0.008011181205350817 
-0.02005089696905099 0.03431538946145760 -0.02391566090746545 
-0.006447475380038671 0.01050420794622104 -0.008011181205350817 
-0.006447475380038671 0.01050420794622104 -0.008011181205350817 
-0.01092539031370805 0.004996547462320145 0.0008345551018362375 
-0.006447475380038671 0.01050420794622104 -0.008011181205350817 
-0.006447475380038671 0.01050420794622104 -0.008011181205350817 
-0.009151025637139260 0.01636660198537062 -0.01220146059359860 
-0.03689269580070542 0.07290611361481909 -0.05724374219748927 
-0.009151025637139260 0.01636660198537062 -0.01220146059359860 
-0.009151025637139260 0.01636660198537062 -0.01220146059359860 
-0.009151025637139260 0.01636660198537062 -0.01220146059359860 
-0.009151025637139260 0.01636660198537062 -0.01220146059359860 
-0.008523597875318330 0.02196553612917644 -0.01761624020338487 
-0.005619300818420991 0.01083190863021420 -0.007193217049504380 
-0.005619300818420991 0.01083190863021420 -0.007193217049504380 
-0.02584280146209887 0.05036887736594414 -0.03757188305971323 
-0.01726136582274536 0.04030977087295171 -0.03116929938195961 
-0.005619300818420991 0.01083190863021420 -0.007193217049504380 
-0.006381564333598911 0.003289985753745055 -0.0006770345698840148 
-0.006381564333598911 0.003289985753745055 -0.0006770345698840148 
-0.006426668618225580 0.003953404172034295 -0.0008441573564414157 
-0.01261723923017380 0.02848002050731027 -0.02330095996798477 
-0.004522000629008698 0.01562363567870418 -0.01425055053385411 
-0.1651715329649448 -0.1625949867144872 0.2503259257070759 
-0.06788899399284187 -0.04001547457565401 0.07387138381096937 
-0.01128476133249837 0.02903645712571817 -0.02212517266564010 
-0.001456633328358911 0.009436032346695945 -0.009124572699845651 
-0.001456633328358911 0.009436032346695945 -0.009124572699845651 
-0.01528764146155800 0.03258648570405073 -0.02684898097865897 
-0.01426047220746253 -0.005722158762479575 0.01316026724549672 
-0.01028130934637755 -0.001808920945195937 0.007190357582314963 
-0.01655536061625113 -0.006309917772530965 0.01664435266048484 
-0.001385873094945306 0.008339916776380750 -0.008172828729598418 
-0.02975826917857977 0.006465303876940538 0.009059227843444343 
-0.007384972546668241 0.0007675065229234215 0.003671265380893460 
-0.01541926164782832 0.01928070747636048 -0.01196367275171174 
-0.002904297056897339 0.01113362749896224 -0.01042302315388049 
-0.02373199380846581 -0.002423745393009738 0.01460165009342717 
-0.002904297056897339 0.01113362749896224 -0.01042302315388049 
-0.01697096059121934 -0.003922818680065470 0.01386269498640494 
-0.02415385707360726 -0.01100542511236792 0.02268334796620217 
-0.002904297056897339 0.01113362749896224 -0.01042302315388049 
-0.007402831984061865 0.01910562910204110 -0.01556030326040715 
-0.002904297056897339 0.01113362749896224 -0.01042302315388049 
-0.002904297056897339 0.01113362749896224 -0.01042302315388049 
-0.01762776270189072 0.03365774521368450 -0.02619922815165000 
-0.005421414605884200 0.008682076489842625 -0.005342502173568469 
-0.005421414605884200 0.008682076489842625 -0.005342502173568469 
-0.009128169438575098 0.01670284191538999 -0.01078477765800377 
-0.02068397577386295 -0.01282333193160115 0.02510270802776428 
-0.005421414605884200 0.008682076489842625 -0.005342502173568469 
-0.005196675021998606 0.008015130730972136 -0.004797900806838121 
-0.005196675021998606 0.008015130730972136 -0.004797900806838121 
-0.005196675021998606 0.008015130730972136 -0.004797900806838121 
-0.005196675021998606 0.008015130730972136 -0.004797900806838121 
-0.01953285045265080 0.03571869154426287 -0.02576657091463521 
-0.003873709623671383 0.008702701780569700 -0.006452903539969430 
-0.003873709623671383 0.008702701780569700 -0.006452903539969430 
-0.003873709623671383 0.008702701780569700 -0.006452903539969430 
-0.003873709623671383 0.008702701780569700 -0.006452903539969430 
-0.008400944770995135 0.01534125660298601 -0.01054480147298055 
-0.003706754832690898 0.008020765425547369 -0.005442275484435301 
-0.003706754832690898 0.008020765425547369 -0.005442275484435301 
-0.003706754832690898 0.008020765425547369 -0.005442275484435301 
-0.003706754832690898 0.008020765425547369 -0.005442275484435301 
-0.002918131666464172 0.005653317867758406 -0.004392228455495406 
-0.002918131666464172 0.005653317867758406 -0.004392228455495406 
-0.002918131666464172 0.005653317867758406 -0.004392228455495406 
-0.01221611479470551 0.02189592179434290 -0.01515439570275244 
-0.01221611479470551 0.02189592179434290 -0.01515439570275244 
-0.008670080799080606 0.01454048186172870 -0.01133227566118416 
-0.01951486468549835 0.003755174554430607 0.006571226875841427 
-0.003904911715761330 0.006599988330215056 -0.005283495050583030 
-0.003904911715761330 0.006599988330215056 -0.005283495050583030 
-0.003904911715761330 0.006599988330215056 -0.005283495050583030 
-0.003904911715761330 0.006599988330215056 -0.005283495050583030 
-0.003904911715761330 0.006599988330215056 -0.005283495050583030 
-0.003904911715761330 0.006599988330215056 -0.005283495050583030 
-0.003904911715761330 0.006599988330215056 -0.005283495050583030 
-0.004765169083319276 0.007940493531513647 -0.006048780610601130 
-0.004765169083319276 0.007940493531513647 -0.006048780610601130 
-0.004765169083319276 0.007940493531513647 -0.006048780610601130 
-0.004765169083319276 0.007940493531513647 -0.006048780610601130 
-0.004765169083319276 0.007940493531513647 -0.006048780610601130 
-0.009263704010483800 0.01591249513459250 -0.01118606071712779 
-0.002922290861567406 0.005616319533120988 -0.003180496412210603 
-0.002922290861567406 0.005616319533120988 -0.003180496412210603 
-0.004179593305592719 0.006849845882019621 -0.005420885029665873 
-0.004179593305592719 0.006849845882019621 -0.005420885029665873 
-0.004179593305592719 0.006849845882019621 -0.005420885029665873 
-0.004179593305592719 0.006849845882019621 -0.005420885029665873 
-0.004179593305592719 0.006849845882019621 -0.005420885029665873 
-0.004179593305592719 0.006849845882019621 -0.005420885029665873 
-0.004179593305592719 0.006849845882019621 -0.005420885029665873 
-0.003562137303498570 0.006897692929215548 -0.004393141014638119 
-0.003562137303498570 0.006897692929215548 -0.004393141014638119 
-0.007824282754721662 0.0009202687853172930 0.002202200691268186 
-0.003527103608455530 0.005857216958496650 -0.004726352059128504 
-0.003527103608455530 0.005857216958496650 -0.004726352059128504 
-0.003527103608455530 0.005857216958496650 -0.004726352059128504 
-0.003527103608455530 0.005857216958496650 -0.004726352059128504 
-0.003527103608455530 0.005857216958496650 -0.004726352059128504 
-0.02316529438961185 -0.01242970575967203 0.02587729582412219 
-0.004002413677535398 0.008279259143374311 -0.005141092498880290 
-0.004002413677535398 0.008279259143374311 -0.005141092498880290 
-0.008065003803258168 0.01658464855887377 -0.01108681221380252 
-0.004002413677535398 0.008279259143374311 -0.005141092498880290 
-0.004002413677535398 0.008279259143374311 -0.005141092498880290 
-0.004002413677535398 0.008279259143374311 -0.005141092498880290 
-0.004527235147323751 0.006638554822416307 -0.004091897933011113 
-0.004527235147323751 0.006638554822416307 -0.004091897933011113 
-0.004527235147323751 0.006638554822416307 -0.004091897933011113 
-0.004527235147323751 0.006638554822416307 -0.004091897933011113 
-0.004527235147323751 0.006638554822416307 -0.004091897933011113 
-0.004784913635140962 0.008417703767150807 -0.006594716433092692 
-0.004498534927164525 0.007972001603078852 -0.005137280106526663 
-0.004498534927164525 0.007972001603078852 -0.005137280106526663 
-0.004498534927164525 0.007972001603078852 -0.005137280106526663 
-0.004498534927164525 0.007972001603078852 -0.005137280106526663 
-0.01206490238419285 0.003685884470265160 0.001519875303588265 
-0.006375692266673930 0.01062628439346351 -0.007581670835046429 
-0.006375692266673930 0.01062628439346351 -0.007581670835046429 
-0.003065367300649787 0.006187603332008239 -0.005125977834008462 
-0.003065367300649787 0.006187603332008239 -0.005125977834008462 
-0.003065367300649787 0.006187603332008239 -0.005125977834008462 
-0.02430653337691758 0.005642459504808739 0.008426147092940010 
-0.005885075898819841 0.01290824347355924 -0.01054018064599221 
-0.01174686824078246 -0.005599335859212870 0.01145103906071763 
-0.004062590125722771 0.008305389415499456 -0.005945719714922227 
-0.01080853337940927 -0.01073492532517176 0.01766257979192020 
-0.01113093515221199 -0.01069622058813274 0.01769730648670205 
-0.03132571177842248 -0.03200106161805658 0.05103485934144662 
-0.006919382924852173 -0.006119097760383058 0.01082073156851644 
-0.006919382924852173 -0.006119097760383058 0.01082073156851644 
-0.01375696362641053 -0.01315421745958288 0.02246919628022913 
-0.01375696362641053 -0.01315421745958288 0.02246919628022913 
-0.006919382924852173 -0.006119097760383058 0.01082073156851644 
-0.01091431919631281 -0.01021867698996432 0.01705894924791050 
-0.006393350403093929 -0.005444735031964631 0.009772982273864117 
-0.006393350403093929 -0.005444735031964631 0.009772982273864117 
-0.01523747975051087 -0.01604275535613131 0.02393561735449333 
-0.01523747975051087 -0.01604275535613131 0.02393561735449333 
-0.01490208177671987 -0.01495880603289368 0.02357810994244642 
-0.03917128604192355 -0.03373458322735651 0.05814443960276636 
-0.004059331528018964 -0.005384768539898734 0.006752632404683912 
-0.01182875445824421 -0.01067732964654218 0.01704034598591891 
-0.03989026718610567 -0.04457553243899566 0.06397889233097637 
-0.02485878157676324 -0.03132606412904777 0.04183865176543664 
-0.01498341101068563 -0.01873194584537909 0.02466898433725699 
-0.02856281643579078 -0.03054700098808818 0.04431919588523530 
-0.007583188027864790 -0.007252379185090323 0.01154413184711575 
-0.01339317052274470 -0.01377487322115597 0.02090662981385906 
-0.007583188027864790 -0.007252379185090323 0.01154413184711575 
-0.007583188027864790 -0.007252379185090323 0.01154413184711575 
-0.005260665469270223 -0.006270316462221598 0.008263133079044135 
-0.03948555776599882 -0.04629758873076880 0.06355671943374970 
-0.01085526760120032 -0.01275100327476492 0.01712154447256468 
-0.009948934980964220 -0.01077961626311387 0.01582582808033882 
-0.005260665469270223 -0.006270316462221598 0.008263133079044135 
-0.005260665469270223 -0.006270316462221598 0.008263133079044135 
-0.01018559647451022 -0.01241636305517249 0.01671067120900577 
-0.005260665469270223 -0.006270316462221598 0.008263133079044135 
-0.04545187347306559 -0.05223507274814824 0.07402931567167277 
-0.006624729934318305 -0.007729954627073449 0.01050887931407162 
-0.006624729934318305 -0.007729954627073449 0.01050887931407162 
-0.006624729934318305 -0.007729954627073449 0.01050887931407162 
-0.006624729934318305 -0.007729954627073449 0.01050887931407162 
-0.006624729934318305 -0.007729954627073449 0.01050887931407162 
-0.01386985702892048 -0.01456905080330361 0.02271968526288454 
-0.004211552227359814 -0.004577122827749686 0.006876574918185612 
-0.01273327980197404 -0.01521384788895538 0.02100448330403298 
-0.005095085794470001 -0.006084659712669010 0.007984449755411953 
-0.005095085794470001 -0.006084659712669010 0.007984449755411953 
-0.005095085794470001 -0.006084659712669010 0.007984449755411953 
-0.005095085794470001 -0.006084659712669010 0.007984449755411953 
-0.006400976095673932 -0.007292102027725026 0.01078999888717817 
-0.006400976095673932 -0.007292102027725026 0.01078999888717817 
-0.01323855679723229 -0.01432722172692484 0.02243846359889086 
-0.006400976095673932 -0.007292102027725026 0.01078999888717817 
-0.006400976095673932 -0.007292102027725026 0.01078999888717817 
-0.01751074839326869 -0.01890197022704343 0.02820442005087819 
-0.006400976095673932 -0.007292102027725026 0.01078999888717817 
-0.01785716127360239 -0.01994916857958766 0.02927816671683184 
-0.006400976095673932 -0.007292102027725026 0.01078999888717817 
-0.006767915666234459 -0.008147766750970363 0.01092547282835898 
-0.004477914933669377 -0.005507660483900890 0.008845736307187055 
-0.01443788922366836 -0.01635896211814403 0.02613357979304515 
-0.02756709175131776 -0.02889328017454233 0.04420088487180694 
-0.004477914933669377 -0.005507660483900890 0.008845736307187055 
-0.004789234604881082 -0.005111716999122037 0.007850703239452311 
-0.004789234604881082 -0.005111716999122037 0.007850703239452311 
-0.004789234604881082 -0.005111716999122037 0.007850703239452311 
-0.004789234604881082 -0.005111716999122037 0.007850703239452311 
-0.006946384976663712 -0.007850700634049695 0.01075963364885017 
-0.006946384976663712 -0.007850700634049695 0.01075963364885017 
-0.006946384976663712 -0.007850700634049695 0.01075963364885017 
-0.006946384976663712 -0.007850700634049695 0.01075963364885017 
-0.006946384976663712 -0.007850700634049695 0.01075963364885017 
-0.006946384976663712 -0.007850700634049695 0.01075963364885017 
-0.004520968793218880 -0.004773941957999694 0.007285966974046385 
-0.01953432995755237 -0.02316723460562592 0.03395402980328115 
-0.004520968793218880 -0.004773941957999694 0.007285966974046385 
-0.004520968793218880 -0.004773941957999694 0.007285966974046385 
-0.008446369754784450 -0.009440151504914732 0.01436873794255553 
-0.004520968793218880 -0.004773941957999694 0.007285966974046385 
-0.009957950548629916 -0.01007109745022423 0.01562863188203133 
-0.009957950548629916 -0.01007109745022423 0.01562863188203133 
-0.004688269511693996 -0.004509299800892271 0.007562695001294689 
-0.004688269511693996 -0.004509299800892271 0.007562695001294689 
-0.004688269511693996 -0.004509299800892271 0.007562695001294689 
-0.004688269511693996 -0.004509299800892271 0.007562695001294689 
-0.004688269511693996 -0.004509299800892271 0.007562695001294689 
-0.005653549534807001 -0.006097105489283925 0.01015563482774007 
-0.005653549534807001 -0.006097105489283925 0.01015563482774007 
-0.01110977229759475 -0.01160986819931841 0.01741442116370002 
-0.006184841292354754 -0.005463821606367518 0.008966883033738385 
-0.006184841292354754 -0.005463821606367518 0.008966883033738385 
-0.005269681036935919 -0.005561797649331955 0.008065936880736637 
-0.009195081998501492 -0.01022800719624699 0.01514870784924578 
-0.004970035289866668 -0.005482628174661650 0.008280415343404237 
-0.004970035289866668 -0.005482628174661650 0.008280415343404237 
-0.004970035289866668 -0.005482628174661650 0.008280415343404237 
-0.004970035289866668 -0.005482628174661650 0.008280415343404237 
-0.008264876541943106 -0.005310096215422195 0.01136306711274913 
-0.008264876541943106 -0.005310096215422195 0.01136306711274913 
-0.008264876541943106 -0.005310096215422195 0.01136306711274913 
-0.008264876541943106 -0.005310096215422195 0.01136306711274913 
-0.008264876541943106 -0.005310096215422195 0.01136306711274913 
-0.008264876541943106 -0.005310096215422195 0.01136306711274913 
-0.008264876541943106 -0.005310096215422195 0.01136306711274913 
-0.008264876541943106 -0.005310096215422195 0.01136306711274913 
-0.008264876541943106 -0.005310096215422195 0.01136306711274913 
-0.004297179146266131 -0.004936948173179358 0.006928552750396689 
-0.004297179146266131 -0.004936948173179358 0.006928552750396689 
-0.004297179146266131 -0.004936948173179358 0.006928552750396689 
-0.01580466842961705 -0.02004263354775695 0.02754945386902036 
-0.008041441868716226 -0.01171310043899652 0.01504411734902200 
-0.003925400961565573 -0.004666209546915038 0.007082770968509145 
-0.005375488741710609 -0.005212315756628274 0.008685238823941491 
-0.005375488741710609 -0.005212315756628274 0.008685238823941491 
-0.005375488741710609 -0.005212315756628274 0.008685238823941491 
-0.005375488741710609 -0.005212315756628274 0.008685238823941491 
-0.005375488741710609 -0.005212315756628274 0.008685238823941491 
-0.005375488741710609 -0.005212315756628274 0.008685238823941491 
-0.005375488741710609 -0.005212315756628274 0.008685238823941491 
-0.02202702242052101 -0.02773241878007180 0.03792685064210585 
-0.01141288129776209 -0.01464597226392256 0.02037776637350952 
-0.006265664104056668 -0.008891789232196525 0.01245430226008645 
-0.006265664104056668 -0.008891789232196525 0.01245430226008645 
-0.006265664104056668 -0.008891789232196525 0.01245430226008645 
-0.006265664104056668 -0.008891789232196525 0.01245430226008645 
-0.006265664104056668 -0.008891789232196525 0.01245430226008645 
-0.01673406197754657 -0.01986967134154600 0.02727884989931639 
-0.02450348490777182 -0.02516223244818944 0.03756656348055139 
-0.005689210117518922 -0.006940399923198352 0.009101546138634694 
-0.01521077632278615 -0.02065151543024679 0.03073351903313497 
-0.01088335036079700 -0.01596296727699097 0.02338530959096795 
-0.002955841325339848 -0.005444415449464045 0.007525802960925063 
-0.002955841325339848 -0.005444415449464045 0.007525802960925063 
-0.002955841325339848 -0.005444415449464045 0.007525802960925063 
-0.002955841325339848 -0.005444415449464045 0.007525802960925063 
-0.004924931005239999 -0.006146046592950890 0.008447538129961636 
-0.01406666353432200 -0.01505644617902771 0.02428571814028543 
-0.005818279165831994 -0.008165285451379237 0.01151935497998898 
-0.005818279165831994 -0.008165285451379237 0.01151935497998898 
-0.01194938700945951 -0.01398325146923076 0.02057345780954331 
-0.009325136403662272 -0.01146625953184371 0.01730403798350466 
-0.004604357434101725 -0.005322575694441894 0.008299518551905518 
-0.006837580701558359 -0.007035119699199818 0.01164846471171269 
-0.006837580701558359 -0.007035119699199818 0.01164846471171269 
-0.005809982494879910 -0.006522494036065646 0.009362497966743306 
-0.005809982494879910 -0.006522494036065646 0.009362497966743306 
-0.01121443026646421 -0.01289641574584079 0.01797824207199760 
-0.004518982130252709 -0.007105958705346357 0.009145171634059245 
-0.003889150454557093 -0.004615827564788698 0.006841848223403765 
-0.003889150454557093 -0.004615827564788698 0.006841848223403765 
-0.003889150454557093 -0.004615827564788698 0.006841848223403765 
-0.004327425961989155 -0.004688548153255819 0.007348209442167019 
-0.004327425961989155 -0.004688548153255819 0.007348209442167019 
-0.004327425961989155 -0.004688548153255819 0.007348209442167019 
-0.003744262722450093 -0.006776152265817164 0.008115564598625310 
-0.003744262722450093 -0.006776152265817164 0.008115564598625310 
-0.003744262722450093 -0.006776152265817164 0.008115564598625310 
-0.003323151601355424 -0.005195976133085029 0.007559988078137371 
-0.003323151601355424 -0.005195976133085029 0.007559988078137371 
-0.007769422930225247 -0.005292561106643449 0.01028771358123500 
-0.007769422930225247 -0.005292561106643449 0.01028771358123500 
-0.007769422930225247 -0.005292561106643449 0.01028771358123500 
-0.007769422930225247 -0.005292561106643449 0.01028771358123500 
-0.01205447801820843 -0.01191104541508317 0.01795766327083688 
-0.006131107843627517 -0.005817966017851519 0.009054102829554338 
-0.006131107843627517 -0.005817966017851519 0.009054102829554338 
-0.006131107843627517 -0.005817966017851519 0.009054102829554338 
-0.006131107843627517 -0.005817966017851519 0.009054102829554338 
-0.005404447771584301 -0.006373921709775139 0.008615744105254288 
-0.005404447771584301 -0.006373921709775139 0.008615744105254288 
-0.005531399138491404 -0.005222345002063574 0.008909653367827960 
-0.005531399138491404 -0.005222345002063574 0.008909653367827960 
-0.005531399138491404 -0.005222345002063574 0.008909653367827960 
-0.005531399138491404 -0.005222345002063574 0.008909653367827960 
-0.005531399138491404 -0.005222345002063574 0.008909653367827960 
-0.005923370174580909 -0.006093079397231653 0.008903560441282538 
-0.005923370174580909 -0.006093079397231653 0.008903560441282538 
-0.005923370174580909 -0.006093079397231653 0.008903560441282538 
-0.004428575151507583 -0.005628956632179571 0.008378190118030128 
-0.004428575151507583 -0.005628956632179571 0.008378190118030128 
-0.004720778969560548 -0.006143683837401814 0.009004519431599146 
-0.004720778969560548 -0.006143683837401814 0.009004519431599146 
-0.004489326055310928 -0.005682138584177260 0.008322982567823910 
-0.003795127660502589 -0.009288897709923628 0.01055491055223609 
-0.006951125486606507 -0.008195739618815546 0.01153726840801233 
-0.006951125486606507 -0.008195739618815546 0.01153726840801233 
-0.006951125486606507 -0.008195739618815546 0.01153726840801233 
-0.006951125486606507 -0.008195739618815546 0.01153726840801233 
-0.006951125486606507 -0.008195739618815546 0.01153726840801233 
-0.006951125486606507 -0.008195739618815546 0.01153726840801233 
-0.1554630962319294 -0.1076730566765306 -0.04750459507831240 
